digraph Tree {
node [shape=box] ;
0 [label="X[21] <= 6.5\nmse = 0.159\nsamples = 1460\nvalue = 12.024"] ;
1 [label="X[7] <= 1378.5\nmse = 0.082\nsamples = 912\nvalue = 11.814"] ;
0 -> 1 [labeldistance=2.5, labelangle=45, headlabel="True"] ;
2 [label="X[3] <= 799.5\nmse = 0.07\nsamples = 564\nvalue = 11.704"] ;
1 -> 2 ;
3 [label="X[164] <= 0.5\nmse = 0.085\nsamples = 184\nvalue = 11.51"] ;
2 -> 3 ;
4 [label="X[7] <= 737.0\nmse = 0.11\nsamples = 45\nvalue = 11.245"] ;
3 -> 4 ;
5 [label="X[22] <= 5.5\nmse = 0.111\nsamples = 8\nvalue = 10.89"] ;
4 -> 5 ;
6 [label="X[0] <= 1009.0\nmse = 0.048\nsamples = 5\nvalue = 10.676"] ;
5 -> 6 ;
7 [label="X[70] <= 0.5\nmse = 0.003\nsamples = 3\nvalue = 10.504"] ;
6 -> 7 ;
8 [label="mse = 0.0\nsamples = 1\nvalue = 10.579"] ;
7 -> 8 ;
9 [label="X[27] <= 2.0\nmse = 0.0\nsamples = 2\nvalue = 10.466"] ;
7 -> 9 ;
10 [label="mse = 0.0\nsamples = 1\nvalue = 10.46"] ;
9 -> 10 ;
11 [label="mse = 0.0\nsamples = 1\nvalue = 10.472"] ;
9 -> 11 ;
12 [label="X[1] <= 106.5\nmse = 0.004\nsamples = 2\nvalue = 10.935"] ;
6 -> 12 ;
13 [label="mse = 0.0\nsamples = 1\nvalue = 11.002"] ;
12 -> 13 ;
14 [label="mse = -0.0\nsamples = 1\nvalue = 10.869"] ;
12 -> 14 ;
15 [label="X[14] <= 0.5\nmse = 0.014\nsamples = 3\nvalue = 11.246"] ;
5 -> 15 ;
16 [label="X[26] <= 1.5\nmse = 0.001\nsamples = 2\nvalue = 11.163"] ;
15 -> 16 ;
17 [label="mse = 0.0\nsamples = 1\nvalue = 11.191"] ;
16 -> 17 ;
18 [label="mse = -0.0\nsamples = 1\nvalue = 11.135"] ;
16 -> 18 ;
19 [label="mse = 0.0\nsamples = 1\nvalue = 11.411"] ;
15 -> 19 ;
20 [label="X[1] <= 51.5\nmse = 0.076\nsamples = 37\nvalue = 11.322"] ;
4 -> 20 ;
21 [label="X[8] <= 270.0\nmse = 0.097\nsamples = 11\nvalue = 11.113"] ;
20 -> 21 ;
22 [label="X[5] <= 184.0\nmse = 0.042\nsamples = 5\nvalue = 10.815"] ;
21 -> 22 ;
23 [label="X[2] <= 4878.0\nmse = 0.002\nsamples = 3\nvalue = 10.979"] ;
22 -> 23 ;
24 [label="mse = 0.0\nsamples = 1\nvalue = 10.915"] ;
23 -> 24 ;
25 [label="X[7] <= 852.0\nmse = 0.0\nsamples = 2\nvalue = 11.01"] ;
23 -> 25 ;
26 [label="mse = 0.0\nsamples = 1\nvalue = 11.002"] ;
25 -> 26 ;
27 [label="mse = 0.0\nsamples = 1\nvalue = 11.019"] ;
25 -> 27 ;
28 [label="X[21] <= 3.5\nmse = 0.001\nsamples = 2\nvalue = 10.57"] ;
22 -> 28 ;
29 [label="mse = 0.0\nsamples = 1\nvalue = 10.543"] ;
28 -> 29 ;
30 [label="mse = -0.0\nsamples = 1\nvalue = 10.597"] ;
28 -> 30 ;
31 [label="X[15] <= 1961.0\nmse = 0.008\nsamples = 6\nvalue = 11.361"] ;
21 -> 31 ;
32 [label="X[7] <= 1192.0\nmse = 0.003\nsamples = 5\nvalue = 11.394"] ;
31 -> 32 ;
33 [label="X[136] <= 0.5\nmse = 0.0\nsamples = 4\nvalue = 11.369"] ;
32 -> 33 ;
34 [label="X[106] <= 0.5\nmse = 0.0\nsamples = 3\nvalue = 11.379"] ;
33 -> 34 ;
35 [label="mse = 0.0\nsamples = 1\nvalue = 11.374"] ;
34 -> 35 ;
36 [label="X[11] <= 2.5\nmse = 0.0\nsamples = 2\nvalue = 11.382"] ;
34 -> 36 ;
37 [label="mse = 0.0\nsamples = 1\nvalue = 11.379"] ;
36 -> 37 ;
38 [label="mse = 0.0\nsamples = 1\nvalue = 11.385"] ;
36 -> 38 ;
39 [label="mse = -0.0\nsamples = 1\nvalue = 11.339"] ;
33 -> 39 ;
40 [label="mse = 0.0\nsamples = 1\nvalue = 11.493"] ;
32 -> 40 ;
41 [label="mse = -0.0\nsamples = 1\nvalue = 11.198"] ;
31 -> 41 ;
42 [label="X[23] <= 2.5\nmse = 0.041\nsamples = 26\nvalue = 11.41"] ;
20 -> 42 ;
43 [label="X[15] <= 976.0\nmse = 0.0\nsamples = 2\nvalue = 10.924"] ;
42 -> 43 ;
44 [label="mse = 0.0\nsamples = 1\nvalue = 10.915"] ;
43 -> 44 ;
45 [label="mse = -0.0\nsamples = 1\nvalue = 10.933"] ;
43 -> 45 ;
46 [label="X[7] <= 1103.5\nmse = 0.023\nsamples = 24\nvalue = 11.451"] ;
42 -> 46 ;
47 [label="X[13] <= 5.5\nmse = 0.006\nsamples = 13\nvalue = 11.364"] ;
46 -> 47 ;
48 [label="X[67] <= 0.5\nmse = 0.005\nsamples = 9\nvalue = 11.331"] ;
47 -> 48 ;
49 [label="X[0] <= 1298.0\nmse = 0.002\nsamples = 8\nvalue = 11.313"] ;
48 -> 49 ;
50 [label="X[3] <= 546.0\nmse = 0.001\nsamples = 7\nvalue = 11.298"] ;
49 -> 50 ;
51 [label="X[21] <= 4.5\nmse = 0.0\nsamples = 4\nvalue = 11.32"] ;
50 -> 51 ;
52 [label="X[0] <= 1110.0\nmse = 0.0\nsamples = 2\nvalue = 11.305"] ;
51 -> 52 ;
53 [label="mse = 0.0\nsamples = 1\nvalue = 11.314"] ;
52 -> 53 ;
54 [label="mse = -0.0\nsamples = 1\nvalue = 11.296"] ;
52 -> 54 ;
55 [label="X[61] <= 0.5\nmse = 0.0\nsamples = 2\nvalue = 11.336"] ;
51 -> 55 ;
56 [label="mse = 0.0\nsamples = 1\nvalue = 11.327"] ;
55 -> 56 ;
57 [label="mse = -0.0\nsamples = 1\nvalue = 11.345"] ;
55 -> 57 ;
58 [label="X[49] <= 0.5\nmse = 0.0\nsamples = 3\nvalue = 11.268"] ;
50 -> 58 ;
59 [label="mse = 0.0\nsamples = 1\nvalue = 11.238"] ;
58 -> 59 ;
60 [label="X[136] <= 0.5\nmse = 0.0\nsamples = 2\nvalue = 11.283"] ;
58 -> 60 ;
61 [label="mse = 0.0\nsamples = 1\nvalue = 11.29"] ;
60 -> 61 ;
62 [label="mse = 0.0\nsamples = 1\nvalue = 11.277"] ;
60 -> 62 ;
63 [label="mse = -0.0\nsamples = 1\nvalue = 11.419"] ;
49 -> 63 ;
64 [label="mse = 0.0\nsamples = 1\nvalue = 11.477"] ;
48 -> 64 ;
65 [label="X[8] <= 410.0\nmse = 0.0\nsamples = 4\nvalue = 11.436"] ;
47 -> 65 ;
66 [label="X[141] <= 0.5\nmse = 0.0\nsamples = 3\nvalue = 11.445"] ;
65 -> 66 ;
67 [label="X[10] <= 1973.0\nmse = 0.0\nsamples = 2\nvalue = 11.448"] ;
66 -> 67 ;
68 [label="mse = 0.0\nsamples = 1\nvalue = 11.446"] ;
67 -> 68 ;
69 [label="mse = 0.0\nsamples = 1\nvalue = 11.451"] ;
67 -> 69 ;
70 [label="mse = 0.0\nsamples = 1\nvalue = 11.439"] ;
66 -> 70 ;
71 [label="mse = 0.0\nsamples = 1\nvalue = 11.408"] ;
65 -> 71 ;
72 [label="X[160] <= 0.5\nmse = 0.024\nsamples = 11\nvalue = 11.554"] ;
46 -> 72 ;
73 [label="X[3] <= 703.0\nmse = 0.011\nsamples = 9\nvalue = 11.613"] ;
72 -> 73 ;
74 [label="X[4] <= 650.0\nmse = 0.003\nsamples = 7\nvalue = 11.566"] ;
73 -> 74 ;
75 [label="X[13] <= 5.5\nmse = 0.001\nsamples = 2\nvalue = 11.492"] ;
74 -> 75 ;
76 [label="mse = 0.0\nsamples = 1\nvalue = 11.462"] ;
75 -> 76 ;
77 [label="mse = -0.0\nsamples = 1\nvalue = 11.523"] ;
75 -> 77 ;
78 [label="X[159] <= 0.5\nmse = 0.001\nsamples = 5\nvalue = 11.595"] ;
74 -> 78 ;
79 [label="X[24] <= 2.5\nmse = 0.0\nsamples = 2\nvalue = 11.561"] ;
78 -> 79 ;
80 [label="mse = 0.0\nsamples = 1\nvalue = 11.574"] ;
79 -> 80 ;
81 [label="mse = 0.0\nsamples = 1\nvalue = 11.548"] ;
79 -> 81 ;
82 [label="X[186] <= 0.5\nmse = 0.001\nsamples = 3\nvalue = 11.618"] ;
78 -> 82 ;
83 [label="X[4] <= 740.0\nmse = 0.0\nsamples = 2\nvalue = 11.637"] ;
82 -> 83 ;
84 [label="mse = 0.0\nsamples = 1\nvalue = 11.648"] ;
83 -> 84 ;
85 [label="mse = -0.0\nsamples = 1\nvalue = 11.626"] ;
83 -> 85 ;
86 [label="mse = 0.0\nsamples = 1\nvalue = 11.581"] ;
82 -> 86 ;
87 [label="X[9] <= 1944.5\nmse = 0.001\nsamples = 2\nvalue = 11.779"] ;
73 -> 87 ;
88 [label="mse = 0.0\nsamples = 1\nvalue = 11.744"] ;
87 -> 88 ;
89 [label="mse = 0.0\nsamples = 1\nvalue = 11.813"] ;
87 -> 89 ;
90 [label="X[5] <= 298.0\nmse = 0.001\nsamples = 2\nvalue = 11.289"] ;
72 -> 90 ;
91 [label="mse = 0.0\nsamples = 1\nvalue = 11.314"] ;
90 -> 91 ;
92 [label="mse = 0.0\nsamples = 1\nvalue = 11.264"] ;
90 -> 92 ;
93 [label="X[7] <= 1134.5\nmse = 0.047\nsamples = 139\nvalue = 11.596"] ;
3 -> 93 ;
94 [label="X[21] <= 4.5\nmse = 0.043\nsamples = 77\nvalue = 11.503"] ;
93 -> 94 ;
95 [label="X[80] <= 0.5\nmse = 0.038\nsamples = 28\nvalue = 11.371"] ;
94 -> 95 ;
96 [label="X[23] <= 3.5\nmse = 0.029\nsamples = 27\nvalue = 11.352"] ;
95 -> 96 ;
97 [label="X[0] <= 1246.5\nmse = 0.02\nsamples = 26\nvalue = 11.371"] ;
96 -> 97 ;
98 [label="X[2] <= 5980.0\nmse = 0.016\nsamples = 22\nvalue = 11.402"] ;
97 -> 98 ;
99 [label="X[3] <= 504.0\nmse = 0.003\nsamples = 12\nvalue = 11.319"] ;
98 -> 99 ;
100 [label="X[9] <= 1948.0\nmse = 0.001\nsamples = 2\nvalue = 11.387"] ;
99 -> 100 ;
101 [label="mse = 0.0\nsamples = 1\nvalue = 11.356"] ;
100 -> 101 ;
102 [label="mse = 0.0\nsamples = 1\nvalue = 11.419"] ;
100 -> 102 ;
103 [label="X[31] <= 1.5\nmse = 0.002\nsamples = 10\nvalue = 11.305"] ;
99 -> 103 ;
104 [label="X[10] <= 1987.0\nmse = 0.002\nsamples = 8\nvalue = 11.292"] ;
103 -> 104 ;
105 [label="X[178] <= 0.5\nmse = 0.001\nsamples = 7\nvalue = 11.282"] ;
104 -> 105 ;
106 [label="X[24] <= 2.5\nmse = 0.001\nsamples = 6\nvalue = 11.271"] ;
105 -> 106 ;
107 [label="X[2] <= 1484.0\nmse = 0.001\nsamples = 3\nvalue = 11.249"] ;
106 -> 107 ;
108 [label="mse = 0.0\nsamples = 1\nvalue = 11.29"] ;
107 -> 108 ;
109 [label="X[27] <= 2.0\nmse = 0.0\nsamples = 2\nvalue = 11.229"] ;
107 -> 109 ;
110 [label="mse = 0.0\nsamples = 1\nvalue = 11.225"] ;
109 -> 110 ;
111 [label="mse = 0.0\nsamples = 1\nvalue = 11.232"] ;
109 -> 111 ;
112 [label="X[7] <= 688.5\nmse = 0.0\nsamples = 3\nvalue = 11.294"] ;
106 -> 112 ;
113 [label="mse = 0.0\nsamples = 1\nvalue = 11.302"] ;
112 -> 113 ;
114 [label="X[170] <= 0.5\nmse = 0.0\nsamples = 2\nvalue = 11.289"] ;
112 -> 114 ;
115 [label="mse = 0.0\nsamples = 1\nvalue = 11.289"] ;
114 -> 115 ;
116 [label="mse = 0.0\nsamples = 1\nvalue = 11.29"] ;
114 -> 116 ;
117 [label="mse = 0.0\nsamples = 1\nvalue = 11.345"] ;
105 -> 117 ;
118 [label="mse = 0.0\nsamples = 1\nvalue = 11.362"] ;
104 -> 118 ;
119 [label="X[1] <= 10.5\nmse = 0.001\nsamples = 2\nvalue = 11.359"] ;
103 -> 119 ;
120 [label="mse = 0.0\nsamples = 1\nvalue = 11.333"] ;
119 -> 120 ;
121 [label="mse = 0.0\nsamples = 1\nvalue = 11.385"] ;
119 -> 121 ;
122 [label="X[136] <= 0.5\nmse = 0.013\nsamples = 10\nvalue = 11.502"] ;
98 -> 122 ;
123 [label="X[2] <= 10950.0\nmse = 0.008\nsamples = 8\nvalue = 11.543"] ;
122 -> 123 ;
124 [label="X[68] <= 0.5\nmse = 0.003\nsamples = 7\nvalue = 11.571"] ;
123 -> 124 ;
125 [label="X[184] <= 0.5\nmse = 0.002\nsamples = 4\nvalue = 11.537"] ;
124 -> 125 ;
126 [label="mse = -0.0\nsamples = 3\nvalue = 11.513"] ;
125 -> 126 ;
127 [label="mse = 0.0\nsamples = 1\nvalue = 11.607"] ;
125 -> 127 ;
128 [label="X[28] <= 3.5\nmse = 0.0\nsamples = 3\nvalue = 11.617"] ;
124 -> 128 ;
129 [label="X[9] <= 1948.5\nmse = 0.0\nsamples = 2\nvalue = 11.631"] ;
128 -> 129 ;
130 [label="mse = 0.0\nsamples = 1\nvalue = 11.635"] ;
129 -> 130 ;
131 [label="mse = 0.0\nsamples = 1\nvalue = 11.626"] ;
129 -> 131 ;
132 [label="mse = 0.0\nsamples = 1\nvalue = 11.59"] ;
128 -> 132 ;
133 [label="mse = 0.0\nsamples = 1\nvalue = 11.349"] ;
123 -> 133 ;
134 [label="X[49] <= 0.5\nmse = 0.001\nsamples = 2\nvalue = 11.338"] ;
122 -> 134 ;
135 [label="mse = 0.0\nsamples = 1\nvalue = 11.314"] ;
134 -> 135 ;
136 [label="mse = -0.0\nsamples = 1\nvalue = 11.362"] ;
134 -> 136 ;
137 [label="X[57] <= 0.5\nmse = 0.01\nsamples = 4\nvalue = 11.201"] ;
97 -> 137 ;
138 [label="X[23] <= 2.5\nmse = 0.0\nsamples = 2\nvalue = 11.299"] ;
137 -> 138 ;
139 [label="mse = 0.0\nsamples = 1\nvalue = 11.321"] ;
138 -> 139 ;
140 [label="mse = -0.0\nsamples = 1\nvalue = 11.277"] ;
138 -> 140 ;
141 [label="X[11] <= 3.0\nmse = 0.001\nsamples = 2\nvalue = 11.104"] ;
137 -> 141 ;
142 [label="mse = 0.0\nsamples = 1\nvalue = 11.133"] ;
141 -> 142 ;
143 [label="mse = 0.0\nsamples = 1\nvalue = 11.074"] ;
141 -> 143 ;
144 [label="mse = 0.0\nsamples = 1\nvalue = 10.859"] ;
96 -> 144 ;
145 [label="mse = -0.0\nsamples = 1\nvalue = 11.884"] ;
95 -> 145 ;
146 [label="X[27] <= 1.5\nmse = 0.031\nsamples = 49\nvalue = 11.578"] ;
94 -> 146 ;
147 [label="X[87] <= 0.5\nmse = 0.02\nsamples = 36\nvalue = 11.511"] ;
146 -> 147 ;
148 [label="X[18] <= 0.5\nmse = 0.012\nsamples = 5\nvalue = 11.307"] ;
147 -> 148 ;
149 [label="X[38] <= 0.5\nmse = 0.002\nsamples = 4\nvalue = 11.357"] ;
148 -> 149 ;
150 [label="X[9] <= 1934.0\nmse = 0.001\nsamples = 3\nvalue = 11.382"] ;
149 -> 150 ;
151 [label="X[183] <= 0.5\nmse = 0.0\nsamples = 2\nvalue = 11.362"] ;
150 -> 151 ;
152 [label="mse = 0.0\nsamples = 1\nvalue = 11.35"] ;
151 -> 152 ;
153 [label="mse = 0.0\nsamples = 1\nvalue = 11.374"] ;
151 -> 153 ;
154 [label="mse = 0.0\nsamples = 1\nvalue = 11.422"] ;
150 -> 154 ;
155 [label="mse = 0.0\nsamples = 1\nvalue = 11.284"] ;
149 -> 155 ;
156 [label="mse = -0.0\nsamples = 1\nvalue = 11.105"] ;
148 -> 156 ;
157 [label="X[4] <= 694.5\nmse = 0.014\nsamples = 31\nvalue = 11.543"] ;
147 -> 157 ;
158 [label="X[22] <= 7.5\nmse = 0.012\nsamples = 12\nvalue = 11.449"] ;
157 -> 158 ;
159 [label="X[186] <= 0.5\nmse = 0.006\nsamples = 10\nvalue = 11.412"] ;
158 -> 159 ;
160 [label="X[177] <= 0.5\nmse = 0.003\nsamples = 9\nvalue = 11.394"] ;
159 -> 160 ;
161 [label="X[14] <= 0.5\nmse = 0.001\nsamples = 8\nvalue = 11.379"] ;
160 -> 161 ;
162 [label="X[15] <= 1972.0\nmse = 0.001\nsamples = 7\nvalue = 11.368"] ;
161 -> 162 ;
163 [label="X[184] <= 0.5\nmse = 0.0\nsamples = 5\nvalue = 11.38"] ;
162 -> 163 ;
164 [label="X[49] <= 0.5\nmse = 0.0\nsamples = 4\nvalue = 11.386"] ;
163 -> 164 ;
165 [label="X[103] <= 0.5\nmse = 0.0\nsamples = 3\nvalue = 11.394"] ;
164 -> 165 ;
166 [label="X[104] <= 0.5\nmse = 0.0\nsamples = 2\nvalue = 11.399"] ;
165 -> 166 ;
167 [label="mse = 0.0\nsamples = 1\nvalue = 11.396"] ;
166 -> 167 ;
168 [label="mse = 0.0\nsamples = 1\nvalue = 11.402"] ;
166 -> 168 ;
169 [label="mse = 0.0\nsamples = 1\nvalue = 11.385"] ;
165 -> 169 ;
170 [label="mse = -0.0\nsamples = 1\nvalue = 11.362"] ;
164 -> 170 ;
171 [label="mse = 0.0\nsamples = 1\nvalue = 11.355"] ;
163 -> 171 ;
172 [label="X[10] <= 1974.5\nmse = 0.0\nsamples = 2\nvalue = 11.339"] ;
162 -> 172 ;
173 [label="mse = 0.0\nsamples = 1\nvalue = 11.327"] ;
172 -> 173 ;
174 [label="mse = 0.0\nsamples = 1\nvalue = 11.35"] ;
172 -> 174 ;
175 [label="mse = -0.0\nsamples = 1\nvalue = 11.456"] ;
161 -> 175 ;
176 [label="mse = 0.0\nsamples = 1\nvalue = 11.513"] ;
160 -> 176 ;
177 [label="mse = 0.0\nsamples = 1\nvalue = 11.571"] ;
159 -> 177 ;
178 [label="X[106] <= 0.5\nmse = 0.002\nsamples = 2\nvalue = 11.634"] ;
158 -> 178 ;
179 [label="mse = 0.0\nsamples = 1\nvalue = 11.678"] ;
178 -> 179 ;
180 [label="mse = 0.0\nsamples = 1\nvalue = 11.59"] ;
178 -> 180 ;
181 [label="X[4] <= 870.5\nmse = 0.005\nsamples = 19\nvalue = 11.603"] ;
157 -> 181 ;
182 [label="X[179] <= 0.5\nmse = 0.002\nsamples = 13\nvalue = 11.638"] ;
181 -> 182 ;
183 [label="X[1] <= 51.0\nmse = 0.001\nsamples = 10\nvalue = 11.618"] ;
182 -> 183 ;
184 [label="X[28] <= 3.5\nmse = 0.001\nsamples = 5\nvalue = 11.642"] ;
183 -> 184 ;
185 [label="X[22] <= 8.5\nmse = 0.0\nsamples = 3\nvalue = 11.664"] ;
184 -> 185 ;
186 [label="X[151] <= 0.5\nmse = 0.0\nsamples = 2\nvalue = 11.657"] ;
185 -> 186 ;
187 [label="mse = 0.0\nsamples = 1\nvalue = 11.661"] ;
186 -> 187 ;
188 [label="mse = 0.0\nsamples = 1\nvalue = 11.653"] ;
186 -> 188 ;
189 [label="mse = -0.0\nsamples = 1\nvalue = 11.678"] ;
185 -> 189 ;
190 [label="X[13] <= 4.5\nmse = 0.0\nsamples = 2\nvalue = 11.608"] ;
184 -> 190 ;
191 [label="mse = 0.0\nsamples = 1\nvalue = 11.613"] ;
190 -> 191 ;
192 [label="mse = -0.0\nsamples = 1\nvalue = 11.604"] ;
190 -> 192 ;
193 [label="X[3] <= 679.5\nmse = 0.0\nsamples = 5\nvalue = 11.593"] ;
183 -> 193 ;
194 [label="X[0] <= 443.5\nmse = 0.0\nsamples = 2\nvalue = 11.578"] ;
193 -> 194 ;
195 [label="mse = 0.0\nsamples = 1\nvalue = 11.57"] ;
194 -> 195 ;
196 [label="mse = 0.0\nsamples = 1\nvalue = 11.585"] ;
194 -> 196 ;
197 [label="X[1] <= 58.5\nmse = 0.0\nsamples = 3\nvalue = 11.604"] ;
193 -> 197 ;
198 [label="X[182] <= 0.5\nmse = 0.0\nsamples = 2\nvalue = 11.606"] ;
197 -> 198 ;
199 [label="mse = 0.0\nsamples = 1\nvalue = 11.608"] ;
198 -> 199 ;
200 [label="mse = 0.0\nsamples = 1\nvalue = 11.604"] ;
198 -> 200 ;
201 [label="mse = -0.0\nsamples = 1\nvalue = 11.599"] ;
197 -> 201 ;
202 [label="X[25] <= 12.5\nmse = 0.0\nsamples = 3\nvalue = 11.707"] ;
182 -> 202 ;
203 [label="X[22] <= 6.5\nmse = 0.0\nsamples = 2\nvalue = 11.693"] ;
202 -> 203 ;
204 [label="mse = 0.0\nsamples = 1\nvalue = 11.699"] ;
203 -> 204 ;
205 [label="mse = -0.0\nsamples = 1\nvalue = 11.687"] ;
203 -> 205 ;
206 [label="mse = 0.0\nsamples = 1\nvalue = 11.736"] ;
202 -> 206 ;
207 [label="X[22] <= 6.0\nmse = 0.003\nsamples = 6\nvalue = 11.527"] ;
181 -> 207 ;
208 [label="X[136] <= 0.5\nmse = 0.001\nsamples = 3\nvalue = 11.473"] ;
207 -> 208 ;
209 [label="X[8] <= 364.0\nmse = 0.0\nsamples = 2\nvalue = 11.489"] ;
208 -> 209 ;
210 [label="mse = 0.0\nsamples = 1\nvalue = 11.482"] ;
209 -> 210 ;
211 [label="mse = -0.0\nsamples = 1\nvalue = 11.496"] ;
209 -> 211 ;
212 [label="mse = 0.0\nsamples = 1\nvalue = 11.44"] ;
208 -> 212 ;
213 [label="X[114] <= 0.5\nmse = 0.0\nsamples = 3\nvalue = 11.58"] ;
207 -> 213 ;
214 [label="X[10] <= 1976.0\nmse = 0.0\nsamples = 2\nvalue = 11.569"] ;
213 -> 214 ;
215 [label="mse = 0.0\nsamples = 1\nvalue = 11.576"] ;
214 -> 215 ;
216 [label="mse = -0.0\nsamples = 1\nvalue = 11.562"] ;
214 -> 216 ;
217 [label="mse = 0.0\nsamples = 1\nvalue = 11.604"] ;
213 -> 217 ;
218 [label="X[143] <= 0.5\nmse = 0.014\nsamples = 13\nvalue = 11.765"] ;
146 -> 218 ;
219 [label="X[155] <= 0.5\nmse = 0.006\nsamples = 12\nvalue = 11.793"] ;
218 -> 219 ;
220 [label="X[45] <= 0.5\nmse = 0.002\nsamples = 7\nvalue = 11.741"] ;
219 -> 220 ;
221 [label="X[15] <= 1963.0\nmse = 0.001\nsamples = 4\nvalue = 11.703"] ;
220 -> 221 ;
222 [label="X[28] <= 3.5\nmse = 0.0\nsamples = 2\nvalue = 11.678"] ;
221 -> 222 ;
223 [label="mse = 0.0\nsamples = 1\nvalue = 11.694"] ;
222 -> 223 ;
224 [label="mse = -0.0\nsamples = 1\nvalue = 11.661"] ;
222 -> 224 ;
225 [label="X[24] <= 2.5\nmse = 0.0\nsamples = 2\nvalue = 11.727"] ;
221 -> 225 ;
226 [label="mse = 0.0\nsamples = 1\nvalue = 11.735"] ;
225 -> 226 ;
227 [label="mse = -0.0\nsamples = 1\nvalue = 11.719"] ;
225 -> 227 ;
228 [label="X[135] <= 0.5\nmse = 0.0\nsamples = 3\nvalue = 11.791"] ;
220 -> 228 ;
229 [label="X[15] <= 1981.0\nmse = 0.0\nsamples = 2\nvalue = 11.801"] ;
228 -> 229 ;
230 [label="mse = 0.0\nsamples = 1\nvalue = 11.805"] ;
229 -> 230 ;
231 [label="mse = 0.0\nsamples = 1\nvalue = 11.798"] ;
229 -> 231 ;
232 [label="mse = 0.0\nsamples = 1\nvalue = 11.771"] ;
228 -> 232 ;
233 [label="X[0] <= 524.0\nmse = 0.001\nsamples = 5\nvalue = 11.866"] ;
219 -> 233 ;
234 [label="mse = 0.0\nsamples = 1\nvalue = 11.905"] ;
233 -> 234 ;
235 [label="X[0] <= 1375.5\nmse = 0.0\nsamples = 4\nvalue = 11.856"] ;
233 -> 235 ;
236 [label="X[172] <= 0.5\nmse = 0.0\nsamples = 3\nvalue = 11.847"] ;
235 -> 236 ;
237 [label="mse = -0.0\nsamples = 2\nvalue = 11.849"] ;
236 -> 237 ;
238 [label="mse = 0.0\nsamples = 1\nvalue = 11.842"] ;
236 -> 238 ;
239 [label="mse = 0.0\nsamples = 1\nvalue = 11.884"] ;
235 -> 239 ;
240 [label="mse = -0.0\nsamples = 1\nvalue = 11.43"] ;
218 -> 240 ;
241 [label="X[24] <= 1.5\nmse = 0.028\nsamples = 62\nvalue = 11.711"] ;
93 -> 241 ;
242 [label="X[28] <= 2.5\nmse = 0.001\nsamples = 2\nvalue = 11.274"] ;
241 -> 242 ;
243 [label="mse = 0.0\nsamples = 1\nvalue = 11.245"] ;
242 -> 243 ;
244 [label="mse = -0.0\nsamples = 1\nvalue = 11.302"] ;
242 -> 244 ;
245 [label="X[157] <= 0.5\nmse = 0.022\nsamples = 60\nvalue = 11.725"] ;
241 -> 245 ;
246 [label="X[184] <= 0.5\nmse = 0.019\nsamples = 57\nvalue = 11.71"] ;
245 -> 246 ;
247 [label="X[1] <= 82.0\nmse = 0.015\nsamples = 47\nvalue = 11.683"] ;
246 -> 247 ;
248 [label="X[21] <= 4.5\nmse = 0.013\nsamples = 43\nvalue = 11.667"] ;
247 -> 248 ;
249 [label="X[3] <= 599.0\nmse = 0.012\nsamples = 11\nvalue = 11.589"] ;
248 -> 249 ;
250 [label="X[4] <= 1260.0\nmse = 0.002\nsamples = 4\nvalue = 11.475"] ;
249 -> 250 ;
251 [label="X[106] <= 0.5\nmse = 0.001\nsamples = 3\nvalue = 11.497"] ;
250 -> 251 ;
252 [label="X[10] <= 2006.0\nmse = 0.0\nsamples = 2\nvalue = 11.48"] ;
251 -> 252 ;
253 [label="mse = 0.0\nsamples = 1\nvalue = 11.477"] ;
252 -> 253 ;
254 [label="mse = -0.0\nsamples = 1\nvalue = 11.482"] ;
252 -> 254 ;
255 [label="mse = -0.0\nsamples = 1\nvalue = 11.531"] ;
251 -> 255 ;
256 [label="mse = 0.0\nsamples = 1\nvalue = 11.408"] ;
250 -> 256 ;
257 [label="X[22] <= 6.5\nmse = 0.006\nsamples = 7\nvalue = 11.654"] ;
249 -> 257 ;
258 [label="X[4] <= 872.5\nmse = 0.0\nsamples = 3\nvalue = 11.565"] ;
257 -> 258 ;
259 [label="X[160] <= 0.5\nmse = 0.0\nsamples = 2\nvalue = 11.552"] ;
258 -> 259 ;
260 [label="mse = 0.0\nsamples = 1\nvalue = 11.542"] ;
259 -> 260 ;
261 [label="mse = 0.0\nsamples = 1\nvalue = 11.562"] ;
259 -> 261 ;
262 [label="mse = -0.0\nsamples = 1\nvalue = 11.59"] ;
258 -> 262 ;
263 [label="X[146] <= 0.5\nmse = 0.0\nsamples = 4\nvalue = 11.721"] ;
257 -> 263 ;
264 [label="mse = 0.0\nsamples = 2\nvalue = 11.74"] ;
263 -> 264 ;
265 [label="X[78] <= 0.5\nmse = 0.0\nsamples = 2\nvalue = 11.702"] ;
263 -> 265 ;
266 [label="mse = 0.0\nsamples = 1\nvalue = 11.708"] ;
265 -> 266 ;
267 [label="mse = 0.0\nsamples = 1\nvalue = 11.695"] ;
265 -> 267 ;
268 [label="X[4] <= 735.5\nmse = 0.01\nsamples = 32\nvalue = 11.694"] ;
248 -> 268 ;
269 [label="X[15] <= 1971.0\nmse = 0.008\nsamples = 14\nvalue = 11.638"] ;
268 -> 269 ;
270 [label="X[16] <= 0.5\nmse = 0.005\nsamples = 5\nvalue = 11.555"] ;
269 -> 270 ;
271 [label="mse = 0.0\nsamples = 1\nvalue = 11.424"] ;
270 -> 271 ;
272 [label="X[78] <= 0.5\nmse = 0.0\nsamples = 4\nvalue = 11.587"] ;
270 -> 272 ;
273 [label="X[27] <= 1.5\nmse = 0.0\nsamples = 2\nvalue = 11.566"] ;
272 -> 273 ;
274 [label="mse = 0.0\nsamples = 1\nvalue = 11.571"] ;
273 -> 274 ;
275 [label="mse = 0.0\nsamples = 1\nvalue = 11.562"] ;
273 -> 275 ;
276 [label="mse = -0.0\nsamples = 2\nvalue = 11.608"] ;
272 -> 276 ;
277 [label="X[153] <= 0.5\nmse = 0.004\nsamples = 9\nvalue = 11.684"] ;
269 -> 277 ;
278 [label="X[170] <= 0.5\nmse = 0.001\nsamples = 8\nvalue = 11.664"] ;
277 -> 278 ;
279 [label="X[0] <= 765.5\nmse = 0.001\nsamples = 6\nvalue = 11.649"] ;
278 -> 279 ;
280 [label="X[0] <= 465.5\nmse = 0.0\nsamples = 4\nvalue = 11.631"] ;
279 -> 280 ;
281 [label="X[185] <= 0.5\nmse = 0.0\nsamples = 2\nvalue = 11.617"] ;
280 -> 281 ;
282 [label="mse = 0.0\nsamples = 1\nvalue = 11.626"] ;
281 -> 282 ;
283 [label="mse = -0.0\nsamples = 1\nvalue = 11.608"] ;
281 -> 283 ;
284 [label="X[159] <= 0.5\nmse = 0.0\nsamples = 2\nvalue = 11.644"] ;
280 -> 284 ;
285 [label="mse = 0.0\nsamples = 1\nvalue = 11.653"] ;
284 -> 285 ;
286 [label="mse = 0.0\nsamples = 1\nvalue = 11.635"] ;
284 -> 286 ;
287 [label="X[7] <= 1260.0\nmse = 0.0\nsamples = 2\nvalue = 11.685"] ;
279 -> 287 ;
288 [label="mse = 0.0\nsamples = 1\nvalue = 11.678"] ;
287 -> 288 ;
289 [label="mse = 0.0\nsamples = 1\nvalue = 11.691"] ;
287 -> 289 ;
290 [label="X[1] <= 49.5\nmse = 0.0\nsamples = 2\nvalue = 11.712"] ;
278 -> 290 ;
291 [label="mse = 0.0\nsamples = 1\nvalue = 11.728"] ;
290 -> 291 ;
292 [label="mse = 0.0\nsamples = 1\nvalue = 11.695"] ;
290 -> 292 ;
293 [label="mse = 0.0\nsamples = 1\nvalue = 11.842"] ;
277 -> 293 ;
294 [label="X[17] <= 1.5\nmse = 0.008\nsamples = 18\nvalue = 11.738"] ;
268 -> 294 ;
295 [label="X[21] <= 5.5\nmse = 0.004\nsamples = 9\nvalue = 11.793"] ;
294 -> 295 ;
296 [label="X[174] <= 0.5\nmse = 0.001\nsamples = 4\nvalue = 11.746"] ;
295 -> 296 ;
297 [label="X[112] <= 0.5\nmse = 0.0\nsamples = 2\nvalue = 11.716"] ;
296 -> 297 ;
298 [label="mse = 0.0\nsamples = 1\nvalue = 11.695"] ;
297 -> 298 ;
299 [label="mse = 0.0\nsamples = 1\nvalue = 11.736"] ;
297 -> 299 ;
300 [label="X[7] <= 1280.0\nmse = 0.0\nsamples = 2\nvalue = 11.777"] ;
296 -> 300 ;
301 [label="mse = 0.0\nsamples = 1\nvalue = 11.779"] ;
300 -> 301 ;
302 [label="mse = 0.0\nsamples = 1\nvalue = 11.775"] ;
300 -> 302 ;
303 [label="X[2] <= 7539.5\nmse = 0.003\nsamples = 5\nvalue = 11.83"] ;
295 -> 303 ;
304 [label="X[4] <= 821.0\nmse = 0.0\nsamples = 2\nvalue = 11.767"] ;
303 -> 304 ;
305 [label="mse = 0.0\nsamples = 1\nvalue = 11.752"] ;
304 -> 305 ;
306 [label="mse = 0.0\nsamples = 1\nvalue = 11.783"] ;
304 -> 306 ;
307 [label="X[160] <= 0.5\nmse = 0.0\nsamples = 3\nvalue = 11.872"] ;
303 -> 307 ;
308 [label="X[24] <= 2.5\nmse = 0.0\nsamples = 2\nvalue = 11.879"] ;
307 -> 308 ;
309 [label="mse = 0.0\nsamples = 1\nvalue = 11.874"] ;
308 -> 309 ;
310 [label="mse = 0.0\nsamples = 1\nvalue = 11.884"] ;
308 -> 310 ;
311 [label="mse = -0.0\nsamples = 1\nvalue = 11.857"] ;
307 -> 311 ;
312 [label="X[10] <= 1951.5\nmse = 0.006\nsamples = 9\nvalue = 11.683"] ;
294 -> 312 ;
313 [label="X[146] <= 0.5\nmse = 0.003\nsamples = 4\nvalue = 11.61"] ;
312 -> 313 ;
314 [label="X[30] <= 2.0\nmse = 0.0\nsamples = 2\nvalue = 11.561"] ;
313 -> 314 ;
315 [label="mse = 0.0\nsamples = 1\nvalue = 11.561"] ;
314 -> 315 ;
316 [label="mse = 0.0\nsamples = 1\nvalue = 11.562"] ;
314 -> 316 ;
317 [label="X[57] <= 0.5\nmse = 0.001\nsamples = 2\nvalue = 11.659"] ;
313 -> 317 ;
318 [label="mse = 0.0\nsamples = 1\nvalue = 11.691"] ;
317 -> 318 ;
319 [label="mse = 0.0\nsamples = 1\nvalue = 11.626"] ;
317 -> 319 ;
320 [label="X[9] <= 1950.5\nmse = 0.0\nsamples = 5\nvalue = 11.741"] ;
312 -> 320 ;
321 [label="X[22] <= 6.0\nmse = 0.0\nsamples = 3\nvalue = 11.756"] ;
320 -> 321 ;
322 [label="mse = 0.0\nsamples = 1\nvalue = 11.752"] ;
321 -> 322 ;
323 [label="X[22] <= 7.5\nmse = 0.0\nsamples = 2\nvalue = 11.758"] ;
321 -> 323 ;
324 [label="mse = 0.0\nsamples = 1\nvalue = 11.756"] ;
323 -> 324 ;
325 [label="mse = -0.0\nsamples = 1\nvalue = 11.76"] ;
323 -> 325 ;
326 [label="X[106] <= 0.5\nmse = 0.0\nsamples = 2\nvalue = 11.718"] ;
320 -> 326 ;
327 [label="mse = 0.0\nsamples = 1\nvalue = 11.716"] ;
326 -> 327 ;
328 [label="mse = 0.0\nsamples = 1\nvalue = 11.72"] ;
326 -> 328 ;
329 [label="X[15] <= 1944.0\nmse = 0.007\nsamples = 4\nvalue = 11.855"] ;
247 -> 329 ;
330 [label="mse = 0.0\nsamples = 1\nvalue = 11.983"] ;
329 -> 330 ;
331 [label="X[148] <= 0.5\nmse = 0.002\nsamples = 3\nvalue = 11.812"] ;
329 -> 331 ;
332 [label="X[151] <= 0.5\nmse = 0.001\nsamples = 2\nvalue = 11.842"] ;
331 -> 332 ;
333 [label="mse = 0.0\nsamples = 1\nvalue = 11.813"] ;
332 -> 333 ;
334 [label="mse = -0.0\nsamples = 1\nvalue = 11.871"] ;
332 -> 334 ;
335 [label="mse = 0.0\nsamples = 1\nvalue = 11.752"] ;
331 -> 335 ;
336 [label="X[1] <= 52.0\nmse = 0.015\nsamples = 10\nvalue = 11.838"] ;
246 -> 336 ;
337 [label="X[2] <= 6507.5\nmse = 0.006\nsamples = 4\nvalue = 11.71"] ;
336 -> 337 ;
338 [label="X[22] <= 7.5\nmse = 0.001\nsamples = 2\nvalue = 11.786"] ;
337 -> 338 ;
339 [label="mse = 0.0\nsamples = 1\nvalue = 11.76"] ;
338 -> 339 ;
340 [label="mse = -0.0\nsamples = 1\nvalue = 11.812"] ;
338 -> 340 ;
341 [label="X[146] <= 0.5\nmse = 0.001\nsamples = 2\nvalue = 11.635"] ;
337 -> 341 ;
342 [label="mse = 0.0\nsamples = 1\nvalue = 11.661"] ;
341 -> 342 ;
343 [label="mse = 0.0\nsamples = 1\nvalue = 11.608"] ;
341 -> 343 ;
344 [label="X[2] <= 9800.0\nmse = 0.002\nsamples = 6\nvalue = 11.923"] ;
336 -> 344 ;
345 [label="X[31] <= 2.5\nmse = 0.0\nsamples = 4\nvalue = 11.952"] ;
344 -> 345 ;
346 [label="X[8] <= 472.5\nmse = 0.0\nsamples = 3\nvalue = 11.942"] ;
345 -> 346 ;
347 [label="X[156] <= 0.5\nmse = 0.0\nsamples = 2\nvalue = 11.951"] ;
346 -> 347 ;
348 [label="mse = 0.0\nsamples = 1\nvalue = 11.951"] ;
347 -> 348 ;
349 [label="mse = -0.0\nsamples = 1\nvalue = 11.951"] ;
347 -> 349 ;
350 [label="mse = 0.0\nsamples = 1\nvalue = 11.925"] ;
346 -> 350 ;
351 [label="mse = 0.0\nsamples = 1\nvalue = 11.98"] ;
345 -> 351 ;
352 [label="X[114] <= 0.5\nmse = 0.001\nsamples = 2\nvalue = 11.865"] ;
344 -> 352 ;
353 [label="mse = 0.0\nsamples = 1\nvalue = 11.831"] ;
352 -> 353 ;
354 [label="mse = 0.0\nsamples = 1\nvalue = 11.898"] ;
352 -> 354 ;
355 [label="X[1] <= 35.0\nmse = 0.002\nsamples = 3\nvalue = 12.015"] ;
245 -> 355 ;
356 [label="mse = 0.0\nsamples = 1\nvalue = 12.065"] ;
355 -> 356 ;
357 [label="X[25] <= 12.5\nmse = 0.0\nsamples = 2\nvalue = 11.991"] ;
355 -> 357 ;
358 [label="mse = 0.0\nsamples = 1\nvalue = 11.97"] ;
357 -> 358 ;
359 [label="mse = -0.0\nsamples = 1\nvalue = 12.011"] ;
357 -> 359 ;
360 [label="X[9] <= 1947.5\nmse = 0.035\nsamples = 380\nvalue = 11.798"] ;
2 -> 360 ;
361 [label="X[22] <= 3.5\nmse = 0.037\nsamples = 49\nvalue = 11.573"] ;
360 -> 361 ;
362 [label="X[183] <= 0.5\nmse = 0.004\nsamples = 3\nvalue = 11.067"] ;
361 -> 362 ;
363 [label="mse = -0.0\nsamples = 2\nvalue = 11.112"] ;
362 -> 363 ;
364 [label="mse = -0.0\nsamples = 1\nvalue = 10.977"] ;
362 -> 364 ;
365 [label="X[21] <= 4.5\nmse = 0.021\nsamples = 46\nvalue = 11.606"] ;
361 -> 365 ;
366 [label="X[8] <= 489.5\nmse = 0.012\nsamples = 10\nvalue = 11.484"] ;
365 -> 366 ;
367 [label="X[11] <= 2.5\nmse = 0.004\nsamples = 7\nvalue = 11.544"] ;
366 -> 367 ;
368 [label="X[20] <= 0.5\nmse = 0.001\nsamples = 6\nvalue = 11.565"] ;
367 -> 368 ;
369 [label="X[184] <= 0.5\nmse = 0.0\nsamples = 4\nvalue = 11.585"] ;
368 -> 369 ;
370 [label="X[160] <= 0.5\nmse = 0.0\nsamples = 2\nvalue = 11.569"] ;
369 -> 370 ;
371 [label="mse = 0.0\nsamples = 1\nvalue = 11.576"] ;
370 -> 371 ;
372 [label="mse = -0.0\nsamples = 1\nvalue = 11.562"] ;
370 -> 372 ;
373 [label="X[15] <= 1977.0\nmse = 0.0\nsamples = 2\nvalue = 11.601"] ;
369 -> 373 ;
374 [label="mse = 0.0\nsamples = 1\nvalue = 11.607"] ;
373 -> 374 ;
375 [label="mse = -0.0\nsamples = 1\nvalue = 11.595"] ;
373 -> 375 ;
376 [label="X[55] <= 0.5\nmse = 0.0\nsamples = 2\nvalue = 11.527"] ;
368 -> 376 ;
377 [label="mse = 0.0\nsamples = 1\nvalue = 11.513"] ;
376 -> 377 ;
378 [label="mse = 0.0\nsamples = 1\nvalue = 11.54"] ;
376 -> 378 ;
379 [label="mse = 0.0\nsamples = 1\nvalue = 11.419"] ;
367 -> 379 ;
380 [label="X[2] <= 9133.5\nmse = 0.002\nsamples = 3\nvalue = 11.341"] ;
366 -> 380 ;
381 [label="mse = 0.0\nsamples = 1\nvalue = 11.402"] ;
380 -> 381 ;
382 [label="X[23] <= 2.5\nmse = 0.0\nsamples = 2\nvalue = 11.311"] ;
380 -> 382 ;
383 [label="mse = 0.0\nsamples = 1\nvalue = 11.302"] ;
382 -> 383 ;
384 [label="mse = 0.0\nsamples = 1\nvalue = 11.321"] ;
382 -> 384 ;
385 [label="X[8] <= 170.0\nmse = 0.018\nsamples = 36\nvalue = 11.64"] ;
365 -> 385 ;
386 [label="X[50] <= 0.5\nmse = 0.012\nsamples = 6\nvalue = 11.474"] ;
385 -> 386 ;
387 [label="X[3] <= 930.0\nmse = 0.002\nsamples = 4\nvalue = 11.545"] ;
386 -> 387 ;
388 [label="X[184] <= 0.5\nmse = 0.0\nsamples = 2\nvalue = 11.502"] ;
387 -> 388 ;
389 [label="mse = 0.0\nsamples = 1\nvalue = 11.493"] ;
388 -> 389 ;
390 [label="mse = -0.0\nsamples = 1\nvalue = 11.512"] ;
388 -> 390 ;
391 [label="X[0] <= 549.5\nmse = 0.0\nsamples = 2\nvalue = 11.588"] ;
387 -> 391 ;
392 [label="mse = 0.0\nsamples = 1\nvalue = 11.585"] ;
391 -> 392 ;
393 [label="mse = -0.0\nsamples = 1\nvalue = 11.59"] ;
391 -> 393 ;
394 [label="X[174] <= 0.5\nmse = 0.002\nsamples = 2\nvalue = 11.331"] ;
386 -> 394 ;
395 [label="mse = 0.0\nsamples = 1\nvalue = 11.289"] ;
394 -> 395 ;
396 [label="mse = -0.0\nsamples = 1\nvalue = 11.374"] ;
394 -> 396 ;
397 [label="X[19] <= 0.5\nmse = 0.013\nsamples = 30\nvalue = 11.673"] ;
385 -> 397 ;
398 [label="X[29] <= 6.5\nmse = 0.008\nsamples = 28\nvalue = 11.654"] ;
397 -> 398 ;
399 [label="X[29] <= 4.0\nmse = 0.007\nsamples = 2\nvalue = 11.432"] ;
398 -> 399 ;
400 [label="mse = 0.0\nsamples = 1\nvalue = 11.35"] ;
399 -> 400 ;
401 [label="mse = 0.0\nsamples = 1\nvalue = 11.513"] ;
399 -> 401 ;
402 [label="X[3] <= 956.0\nmse = 0.004\nsamples = 26\nvalue = 11.671"] ;
398 -> 402 ;
403 [label="X[8] <= 272.5\nmse = 0.002\nsamples = 16\nvalue = 11.695"] ;
402 -> 403 ;
404 [label="X[4] <= 900.0\nmse = 0.001\nsamples = 8\nvalue = 11.67"] ;
403 -> 404 ;
405 [label="X[8] <= 255.0\nmse = 0.001\nsamples = 4\nvalue = 11.646"] ;
404 -> 405 ;
406 [label="X[30] <= 1.0\nmse = 0.0\nsamples = 3\nvalue = 11.658"] ;
405 -> 406 ;
407 [label="mse = 0.0\nsamples = 2\nvalue = 11.653"] ;
406 -> 407 ;
408 [label="mse = 0.0\nsamples = 1\nvalue = 11.67"] ;
406 -> 408 ;
409 [label="mse = -0.0\nsamples = 1\nvalue = 11.608"] ;
405 -> 409 ;
410 [label="X[3] <= 936.0\nmse = 0.0\nsamples = 4\nvalue = 11.695"] ;
404 -> 410 ;
411 [label="X[13] <= 4.5\nmse = 0.0\nsamples = 3\nvalue = 11.692"] ;
410 -> 411 ;
412 [label="mse = 0.0\nsamples = 1\nvalue = 11.687"] ;
411 -> 412 ;
413 [label="X[137] <= 0.5\nmse = 0.0\nsamples = 2\nvalue = 11.694"] ;
411 -> 413 ;
414 [label="mse = 0.0\nsamples = 1\nvalue = 11.693"] ;
413 -> 414 ;
415 [label="mse = 0.0\nsamples = 1\nvalue = 11.695"] ;
413 -> 415 ;
416 [label="mse = -0.0\nsamples = 1\nvalue = 11.704"] ;
410 -> 416 ;
417 [label="X[4] <= 835.0\nmse = 0.002\nsamples = 8\nvalue = 11.72"] ;
403 -> 417 ;
418 [label="X[4] <= 809.5\nmse = 0.001\nsamples = 4\nvalue = 11.693"] ;
417 -> 418 ;
419 [label="mse = 0.0\nsamples = 1\nvalue = 11.74"] ;
418 -> 419 ;
420 [label="X[11] <= 2.5\nmse = 0.0\nsamples = 3\nvalue = 11.677"] ;
418 -> 420 ;
421 [label="X[22] <= 6.5\nmse = 0.0\nsamples = 2\nvalue = 11.691"] ;
420 -> 421 ;
422 [label="mse = 0.0\nsamples = 1\nvalue = 11.683"] ;
421 -> 422 ;
423 [label="mse = 0.0\nsamples = 1\nvalue = 11.699"] ;
421 -> 423 ;
424 [label="mse = -0.0\nsamples = 1\nvalue = 11.648"] ;
420 -> 424 ;
425 [label="X[9] <= 1909.0\nmse = 0.001\nsamples = 4\nvalue = 11.748"] ;
417 -> 425 ;
426 [label="mse = 0.0\nsamples = 1\nvalue = 11.687"] ;
425 -> 426 ;
427 [label="X[14] <= 0.5\nmse = 0.0\nsamples = 3\nvalue = 11.769"] ;
425 -> 427 ;
428 [label="mse = 0.0\nsamples = 2\nvalue = 11.775"] ;
427 -> 428 ;
429 [label="mse = -0.0\nsamples = 1\nvalue = 11.756"] ;
427 -> 429 ;
430 [label="X[7] <= 999.0\nmse = 0.005\nsamples = 10\nvalue = 11.633"] ;
402 -> 430 ;
431 [label="X[23] <= 3.5\nmse = 0.0\nsamples = 2\nvalue = 11.523"] ;
430 -> 431 ;
432 [label="mse = 0.0\nsamples = 1\nvalue = 11.533"] ;
431 -> 432 ;
433 [label="mse = 0.0\nsamples = 1\nvalue = 11.513"] ;
431 -> 433 ;
434 [label="X[2] <= 6900.0\nmse = 0.002\nsamples = 8\nvalue = 11.661"] ;
430 -> 434 ;
435 [label="X[4] <= 1060.5\nmse = 0.0\nsamples = 3\nvalue = 11.614"] ;
434 -> 435 ;
436 [label="mse = 0.0\nsamples = 1\nvalue = 11.635"] ;
435 -> 436 ;
437 [label="X[61] <= 0.5\nmse = 0.0\nsamples = 2\nvalue = 11.604"] ;
435 -> 437 ;
438 [label="mse = 0.0\nsamples = 1\nvalue = 11.594"] ;
437 -> 438 ;
439 [label="mse = -0.0\nsamples = 1\nvalue = 11.613"] ;
437 -> 439 ;
440 [label="X[30] <= 1.5\nmse = 0.001\nsamples = 5\nvalue = 11.689"] ;
434 -> 440 ;
441 [label="mse = 0.0\nsamples = 1\nvalue = 11.736"] ;
440 -> 441 ;
442 [label="X[159] <= 0.5\nmse = 0.0\nsamples = 4\nvalue = 11.677"] ;
440 -> 442 ;
443 [label="X[54] <= 0.5\nmse = 0.0\nsamples = 3\nvalue = 11.685"] ;
442 -> 443 ;
444 [label="mse = 0.0\nsamples = 1\nvalue = 11.695"] ;
443 -> 444 ;
445 [label="X[8] <= 256.5\nmse = 0.0\nsamples = 2\nvalue = 11.68"] ;
443 -> 445 ;
446 [label="mse = 0.0\nsamples = 1\nvalue = 11.678"] ;
445 -> 446 ;
447 [label="mse = -0.0\nsamples = 1\nvalue = 11.682"] ;
445 -> 447 ;
448 [label="mse = 0.0\nsamples = 1\nvalue = 11.653"] ;
442 -> 448 ;
449 [label="X[10] <= 1978.0\nmse = 0.004\nsamples = 2\nvalue = 11.941"] ;
397 -> 449 ;
450 [label="mse = 0.0\nsamples = 1\nvalue = 11.878"] ;
449 -> 450 ;
451 [label="mse = 0.0\nsamples = 1\nvalue = 12.005"] ;
449 -> 451 ;
452 [label="X[4] <= 1067.5\nmse = 0.027\nsamples = 331\nvalue = 11.831"] ;
360 -> 452 ;
453 [label="X[17] <= 1.5\nmse = 0.018\nsamples = 180\nvalue = 11.762"] ;
452 -> 453 ;
454 [label="X[22] <= 4.5\nmse = 0.021\nsamples = 72\nvalue = 11.69"] ;
453 -> 454 ;
455 [label="X[7] <= 971.0\nmse = 0.004\nsamples = 3\nvalue = 11.372"] ;
454 -> 455 ;
456 [label="X[61] <= 0.5\nmse = 0.001\nsamples = 2\nvalue = 11.413"] ;
455 -> 456 ;
457 [label="mse = 0.0\nsamples = 1\nvalue = 11.385"] ;
456 -> 457 ;
458 [label="mse = -0.0\nsamples = 1\nvalue = 11.44"] ;
456 -> 458 ;
459 [label="mse = 0.0\nsamples = 1\nvalue = 11.29"] ;
455 -> 459 ;
460 [label="X[178] <= 0.5\nmse = 0.017\nsamples = 69\nvalue = 11.703"] ;
454 -> 460 ;
461 [label="X[58] <= 0.5\nmse = 0.011\nsamples = 67\nvalue = 11.715"] ;
460 -> 461 ;
462 [label="X[4] <= 989.0\nmse = 0.009\nsamples = 64\nvalue = 11.705"] ;
461 -> 462 ;
463 [label="X[22] <= 6.5\nmse = 0.008\nsamples = 52\nvalue = 11.685"] ;
462 -> 463 ;
464 [label="X[9] <= 1984.0\nmse = 0.008\nsamples = 38\nvalue = 11.664"] ;
463 -> 464 ;
465 [label="X[1] <= 104.5\nmse = 0.007\nsamples = 37\nvalue = 11.669"] ;
464 -> 465 ;
466 [label="X[10] <= 1975.5\nmse = 0.006\nsamples = 34\nvalue = 11.66"] ;
465 -> 466 ;
467 [label="X[180] <= 0.5\nmse = 0.005\nsamples = 32\nvalue = 11.651"] ;
466 -> 467 ;
468 [label="X[15] <= 1968.5\nmse = 0.004\nsamples = 31\nvalue = 11.656"] ;
467 -> 468 ;
469 [label="X[0] <= 895.0\nmse = 0.004\nsamples = 17\nvalue = 11.632"] ;
468 -> 469 ;
470 [label="X[2] <= 9564.0\nmse = 0.002\nsamples = 10\nvalue = 11.598"] ;
469 -> 470 ;
471 [label="X[4] <= 893.0\nmse = 0.001\nsamples = 7\nvalue = 11.578"] ;
470 -> 471 ;
472 [label="X[7] <= 887.0\nmse = 0.0\nsamples = 3\nvalue = 11.541"] ;
471 -> 472 ;
473 [label="X[57] <= 0.5\nmse = 0.0\nsamples = 2\nvalue = 11.555"] ;
472 -> 473 ;
474 [label="mse = 0.0\nsamples = 1\nvalue = 11.566"] ;
473 -> 474 ;
475 [label="mse = -0.0\nsamples = 1\nvalue = 11.544"] ;
473 -> 475 ;
476 [label="mse = 0.0\nsamples = 1\nvalue = 11.513"] ;
472 -> 476 ;
477 [label="X[49] <= 0.5\nmse = 0.0\nsamples = 4\nvalue = 11.606"] ;
471 -> 477 ;
478 [label="mse = 0.0\nsamples = 1\nvalue = 11.631"] ;
477 -> 478 ;
479 [label="X[80] <= 0.5\nmse = 0.0\nsamples = 3\nvalue = 11.598"] ;
477 -> 479 ;
480 [label="X[164] <= 0.5\nmse = 0.0\nsamples = 2\nvalue = 11.601"] ;
479 -> 480 ;
481 [label="mse = 0.0\nsamples = 1\nvalue = 11.604"] ;
480 -> 481 ;
482 [label="mse = 0.0\nsamples = 1\nvalue = 11.599"] ;
480 -> 482 ;
483 [label="mse = 0.0\nsamples = 1\nvalue = 11.59"] ;
479 -> 483 ;
484 [label="X[114] <= 0.5\nmse = 0.0\nsamples = 3\nvalue = 11.645"] ;
470 -> 484 ;
485 [label="X[181] <= 0.5\nmse = 0.0\nsamples = 2\nvalue = 11.651"] ;
484 -> 485 ;
486 [label="mse = 0.0\nsamples = 1\nvalue = 11.648"] ;
485 -> 486 ;
487 [label="mse = 0.0\nsamples = 1\nvalue = 11.653"] ;
485 -> 487 ;
488 [label="mse = 0.0\nsamples = 1\nvalue = 11.635"] ;
484 -> 488 ;
489 [label="X[0] <= 1218.5\nmse = 0.003\nsamples = 7\nvalue = 11.68"] ;
469 -> 489 ;
490 [label="X[2] <= 8690.0\nmse = 0.001\nsamples = 4\nvalue = 11.72"] ;
489 -> 490 ;
491 [label="X[13] <= 4.5\nmse = 0.0\nsamples = 3\nvalue = 11.735"] ;
490 -> 491 ;
492 [label="mse = 0.0\nsamples = 1\nvalue = 11.728"] ;
491 -> 492 ;
493 [label="X[1] <= 49.5\nmse = 0.0\nsamples = 2\nvalue = 11.738"] ;
491 -> 493 ;
494 [label="mse = 0.0\nsamples = 1\nvalue = 11.74"] ;
493 -> 494 ;
495 [label="mse = 0.0\nsamples = 1\nvalue = 11.736"] ;
493 -> 495 ;
496 [label="mse = -0.0\nsamples = 1\nvalue = 11.674"] ;
490 -> 496 ;
497 [label="X[19] <= 0.5\nmse = 0.0\nsamples = 3\nvalue = 11.626"] ;
489 -> 497 ;
498 [label="X[68] <= 0.5\nmse = 0.0\nsamples = 2\nvalue = 11.613"] ;
497 -> 498 ;
499 [label="mse = 0.0\nsamples = 1\nvalue = 11.608"] ;
498 -> 499 ;
500 [label="mse = 0.0\nsamples = 1\nvalue = 11.617"] ;
498 -> 500 ;
501 [label="mse = -0.0\nsamples = 1\nvalue = 11.653"] ;
497 -> 501 ;
502 [label="X[181] <= 0.5\nmse = 0.003\nsamples = 14\nvalue = 11.686"] ;
468 -> 502 ;
503 [label="X[0] <= 831.0\nmse = 0.002\nsamples = 12\nvalue = 11.698"] ;
502 -> 503 ;
504 [label="X[1] <= 64.5\nmse = 0.001\nsamples = 6\nvalue = 11.731"] ;
503 -> 504 ;
505 [label="X[129] <= 0.5\nmse = 0.0\nsamples = 3\nvalue = 11.71"] ;
504 -> 505 ;
506 [label="X[112] <= 0.5\nmse = 0.0\nsamples = 2\nvalue = 11.716"] ;
505 -> 506 ;
507 [label="mse = 0.0\nsamples = 1\nvalue = 11.72"] ;
506 -> 507 ;
508 [label="mse = -0.0\nsamples = 1\nvalue = 11.712"] ;
506 -> 508 ;
509 [label="mse = 0.0\nsamples = 1\nvalue = 11.699"] ;
505 -> 509 ;
510 [label="X[86] <= 0.5\nmse = 0.0\nsamples = 3\nvalue = 11.752"] ;
504 -> 510 ;
511 [label="X[152] <= 0.5\nmse = 0.0\nsamples = 2\nvalue = 11.76"] ;
510 -> 511 ;
512 [label="mse = 0.0\nsamples = 1\nvalue = 11.764"] ;
511 -> 512 ;
513 [label="mse = 0.0\nsamples = 1\nvalue = 11.756"] ;
511 -> 513 ;
514 [label="mse = -0.0\nsamples = 1\nvalue = 11.736"] ;
510 -> 514 ;
515 [label="X[0] <= 1040.5\nmse = 0.002\nsamples = 6\nvalue = 11.665"] ;
503 -> 515 ;
516 [label="mse = 0.0\nsamples = 2\nvalue = 11.608"] ;
515 -> 516 ;
517 [label="X[174] <= 0.5\nmse = 0.0\nsamples = 4\nvalue = 11.693"] ;
515 -> 517 ;
518 [label="mse = 0.0\nsamples = 1\nvalue = 11.662"] ;
517 -> 518 ;
519 [label="X[3] <= 861.0\nmse = 0.0\nsamples = 3\nvalue = 11.703"] ;
517 -> 519 ;
520 [label="mse = 0.0\nsamples = 1\nvalue = 11.72"] ;
519 -> 520 ;
521 [label="X[3] <= 907.0\nmse = 0.0\nsamples = 2\nvalue = 11.695"] ;
519 -> 521 ;
522 [label="mse = 0.0\nsamples = 1\nvalue = 11.699"] ;
521 -> 522 ;
523 [label="mse = 0.0\nsamples = 1\nvalue = 11.691"] ;
521 -> 523 ;
524 [label="X[146] <= 0.5\nmse = 0.0\nsamples = 2\nvalue = 11.614"] ;
502 -> 524 ;
525 [label="mse = 0.0\nsamples = 1\nvalue = 11.608"] ;
524 -> 525 ;
526 [label="mse = 0.0\nsamples = 1\nvalue = 11.62"] ;
524 -> 526 ;
527 [label="mse = 0.0\nsamples = 1\nvalue = 11.482"] ;
467 -> 527 ;
528 [label="X[8] <= 530.0\nmse = 0.0\nsamples = 2\nvalue = 11.804"] ;
466 -> 528 ;
529 [label="mse = 0.0\nsamples = 1\nvalue = 11.813"] ;
528 -> 529 ;
530 [label="mse = 0.0\nsamples = 1\nvalue = 11.794"] ;
528 -> 530 ;
531 [label="X[1] <= 130.0\nmse = 0.004\nsamples = 3\nvalue = 11.779"] ;
465 -> 531 ;
532 [label="X[18] <= 0.5\nmse = 0.001\nsamples = 2\nvalue = 11.74"] ;
531 -> 532 ;
533 [label="mse = 0.0\nsamples = 1\nvalue = 11.768"] ;
532 -> 533 ;
534 [label="mse = 0.0\nsamples = 1\nvalue = 11.712"] ;
532 -> 534 ;
535 [label="mse = -0.0\nsamples = 1\nvalue = 11.857"] ;
531 -> 535 ;
536 [label="mse = -0.0\nsamples = 1\nvalue = 11.446"] ;
464 -> 536 ;
537 [label="X[15] <= 1955.5\nmse = 0.004\nsamples = 14\nvalue = 11.743"] ;
463 -> 537 ;
538 [label="X[50] <= 0.5\nmse = 0.002\nsamples = 3\nvalue = 11.649"] ;
537 -> 538 ;
539 [label="X[9] <= 1952.0\nmse = 0.0\nsamples = 2\nvalue = 11.678"] ;
538 -> 539 ;
540 [label="mse = 0.0\nsamples = 1\nvalue = 11.687"] ;
539 -> 540 ;
541 [label="mse = 0.0\nsamples = 1\nvalue = 11.67"] ;
539 -> 541 ;
542 [label="mse = 0.0\nsamples = 1\nvalue = 11.589"] ;
538 -> 542 ;
543 [label="X[9] <= 1957.0\nmse = 0.001\nsamples = 11\nvalue = 11.769"] ;
537 -> 543 ;
544 [label="X[183] <= 0.5\nmse = 0.0\nsamples = 4\nvalue = 11.808"] ;
543 -> 544 ;
545 [label="X[21] <= 4.5\nmse = 0.0\nsamples = 3\nvalue = 11.814"] ;
544 -> 545 ;
546 [label="mse = 0.0\nsamples = 1\nvalue = 11.819"] ;
545 -> 546 ;
547 [label="X[136] <= 0.5\nmse = 0.0\nsamples = 2\nvalue = 11.812"] ;
545 -> 547 ;
548 [label="mse = 0.0\nsamples = 1\nvalue = 11.813"] ;
547 -> 548 ;
549 [label="mse = -0.0\nsamples = 1\nvalue = 11.812"] ;
547 -> 549 ;
550 [label="mse = -0.0\nsamples = 1\nvalue = 11.791"] ;
544 -> 550 ;
551 [label="X[7] <= 905.5\nmse = 0.001\nsamples = 7\nvalue = 11.747"] ;
543 -> 551 ;
552 [label="X[10] <= 1993.0\nmse = 0.0\nsamples = 6\nvalue = 11.756"] ;
551 -> 552 ;
553 [label="X[112] <= 0.5\nmse = 0.0\nsamples = 4\nvalue = 11.745"] ;
552 -> 553 ;
554 [label="X[183] <= 0.5\nmse = 0.0\nsamples = 2\nvalue = 11.758"] ;
553 -> 554 ;
555 [label="mse = 0.0\nsamples = 1\nvalue = 11.752"] ;
554 -> 555 ;
556 [label="mse = -0.0\nsamples = 1\nvalue = 11.764"] ;
554 -> 556 ;
557 [label="mse = 0.0\nsamples = 2\nvalue = 11.732"] ;
553 -> 557 ;
558 [label="X[176] <= 0.5\nmse = 0.0\nsamples = 2\nvalue = 11.777"] ;
552 -> 558 ;
559 [label="mse = 0.0\nsamples = 1\nvalue = 11.775"] ;
558 -> 559 ;
560 [label="mse = 0.0\nsamples = 1\nvalue = 11.779"] ;
558 -> 560 ;
561 [label="mse = -0.0\nsamples = 1\nvalue = 11.695"] ;
551 -> 561 ;
562 [label="X[0] <= 1123.0\nmse = 0.005\nsamples = 12\nvalue = 11.789"] ;
462 -> 562 ;
563 [label="X[8] <= 624.0\nmse = 0.003\nsamples = 9\nvalue = 11.818"] ;
562 -> 563 ;
564 [label="X[8] <= 293.5\nmse = 0.001\nsamples = 7\nvalue = 11.794"] ;
563 -> 564 ;
565 [label="X[61] <= 0.5\nmse = 0.0\nsamples = 4\nvalue = 11.819"] ;
564 -> 565 ;
566 [label="X[30] <= 2.0\nmse = 0.0\nsamples = 2\nvalue = 11.836"] ;
565 -> 566 ;
567 [label="mse = 0.0\nsamples = 1\nvalue = 11.845"] ;
566 -> 567 ;
568 [label="mse = -0.0\nsamples = 1\nvalue = 11.828"] ;
566 -> 568 ;
569 [label="X[152] <= 0.5\nmse = 0.0\nsamples = 2\nvalue = 11.801"] ;
565 -> 569 ;
570 [label="mse = 0.0\nsamples = 1\nvalue = 11.798"] ;
569 -> 570 ;
571 [label="mse = 0.0\nsamples = 1\nvalue = 11.803"] ;
569 -> 571 ;
572 [label="X[80] <= 0.5\nmse = 0.0\nsamples = 3\nvalue = 11.761"] ;
564 -> 572 ;
573 [label="X[156] <= 0.5\nmse = 0.0\nsamples = 2\nvalue = 11.746"] ;
572 -> 573 ;
574 [label="mse = 0.0\nsamples = 1\nvalue = 11.748"] ;
573 -> 574 ;
575 [label="mse = 0.0\nsamples = 1\nvalue = 11.744"] ;
573 -> 575 ;
576 [label="mse = -0.0\nsamples = 1\nvalue = 11.791"] ;
572 -> 576 ;
577 [label="X[2] <= 9109.0\nmse = 0.0\nsamples = 2\nvalue = 11.901"] ;
563 -> 577 ;
578 [label="mse = 0.0\nsamples = 1\nvalue = 11.918"] ;
577 -> 578 ;
579 [label="mse = 0.0\nsamples = 1\nvalue = 11.884"] ;
577 -> 579 ;
580 [label="X[112] <= 0.5\nmse = 0.002\nsamples = 3\nvalue = 11.702"] ;
562 -> 580 ;
581 [label="mse = 0.0\nsamples = 1\nvalue = 11.767"] ;
580 -> 581 ;
582 [label="X[9] <= 1952.5\nmse = 0.0\nsamples = 2\nvalue = 11.67"] ;
580 -> 582 ;
583 [label="mse = 0.0\nsamples = 1\nvalue = 11.687"] ;
582 -> 583 ;
584 [label="mse = 0.0\nsamples = 1\nvalue = 11.653"] ;
582 -> 584 ;
585 [label="X[11] <= 2.5\nmse = 0.0\nsamples = 3\nvalue = 11.93"] ;
461 -> 585 ;
586 [label="X[135] <= 0.5\nmse = 0.0\nsamples = 2\nvalue = 11.917"] ;
585 -> 586 ;
587 [label="mse = 0.0\nsamples = 1\nvalue = 11.928"] ;
586 -> 587 ;
588 [label="mse = 0.0\nsamples = 1\nvalue = 11.905"] ;
586 -> 588 ;
589 [label="mse = -0.0\nsamples = 1\nvalue = 11.958"] ;
585 -> 589 ;
590 [label="X[156] <= 0.5\nmse = 0.08\nsamples = 2\nvalue = 11.324"] ;
460 -> 590 ;
591 [label="mse = 0.0\nsamples = 1\nvalue = 11.607"] ;
590 -> 591 ;
592 [label="mse = 0.0\nsamples = 1\nvalue = 11.041"] ;
590 -> 592 ;
593 [label="X[15] <= 1967.5\nmse = 0.01\nsamples = 108\nvalue = 11.81"] ;
453 -> 593 ;
594 [label="X[165] <= 0.5\nmse = 0.008\nsamples = 43\nvalue = 11.751"] ;
593 -> 594 ;
595 [label="X[2] <= 8911.5\nmse = 0.006\nsamples = 42\nvalue = 11.758"] ;
594 -> 595 ;
596 [label="X[0] <= 1160.0\nmse = 0.006\nsamples = 23\nvalue = 11.725"] ;
595 -> 596 ;
597 [label="X[0] <= 71.5\nmse = 0.005\nsamples = 18\nvalue = 11.745"] ;
596 -> 597 ;
598 [label="X[9] <= 1964.5\nmse = 0.005\nsamples = 3\nvalue = 11.653"] ;
597 -> 598 ;
599 [label="X[2] <= 8197.0\nmse = 0.0\nsamples = 2\nvalue = 11.604"] ;
598 -> 599 ;
600 [label="mse = 0.0\nsamples = 1\nvalue = 11.599"] ;
599 -> 600 ;
601 [label="mse = -0.0\nsamples = 1\nvalue = 11.608"] ;
599 -> 601 ;
602 [label="mse = 0.0\nsamples = 1\nvalue = 11.752"] ;
598 -> 602 ;
603 [label="X[1] <= 63.0\nmse = 0.003\nsamples = 15\nvalue = 11.763"] ;
597 -> 603 ;
604 [label="X[174] <= 0.5\nmse = 0.002\nsamples = 9\nvalue = 11.73"] ;
603 -> 604 ;
605 [label="X[9] <= 1969.5\nmse = 0.001\nsamples = 5\nvalue = 11.699"] ;
604 -> 605 ;
606 [label="X[15] <= 979.5\nmse = 0.0\nsamples = 3\nvalue = 11.681"] ;
605 -> 606 ;
607 [label="mse = 0.0\nsamples = 1\nvalue = 11.666"] ;
606 -> 607 ;
608 [label="X[181] <= 0.5\nmse = 0.0\nsamples = 2\nvalue = 11.689"] ;
606 -> 608 ;
609 [label="mse = 0.0\nsamples = 1\nvalue = 11.695"] ;
608 -> 609 ;
610 [label="mse = 0.0\nsamples = 1\nvalue = 11.683"] ;
608 -> 610 ;
611 [label="X[144] <= 0.5\nmse = 0.0\nsamples = 2\nvalue = 11.726"] ;
605 -> 611 ;
612 [label="mse = 0.0\nsamples = 1\nvalue = 11.725"] ;
611 -> 612 ;
613 [label="mse = 0.0\nsamples = 1\nvalue = 11.728"] ;
611 -> 613 ;
614 [label="X[0] <= 517.0\nmse = 0.001\nsamples = 4\nvalue = 11.768"] ;
604 -> 614 ;
615 [label="X[80] <= 0.5\nmse = 0.0\nsamples = 2\nvalue = 11.792"] ;
614 -> 615 ;
616 [label="mse = 0.0\nsamples = 1\nvalue = 11.791"] ;
615 -> 616 ;
617 [label="mse = -0.0\nsamples = 1\nvalue = 11.794"] ;
615 -> 617 ;
618 [label="X[18] <= 0.5\nmse = 0.0\nsamples = 2\nvalue = 11.744"] ;
614 -> 618 ;
619 [label="mse = 0.0\nsamples = 1\nvalue = 11.736"] ;
618 -> 619 ;
620 [label="mse = 0.0\nsamples = 1\nvalue = 11.752"] ;
618 -> 620 ;
621 [label="X[0] <= 912.0\nmse = 0.001\nsamples = 6\nvalue = 11.813"] ;
603 -> 621 ;
622 [label="X[4] <= 983.0\nmse = 0.0\nsamples = 3\nvalue = 11.846"] ;
621 -> 622 ;
623 [label="mse = 0.0\nsamples = 1\nvalue = 11.864"] ;
622 -> 623 ;
624 [label="X[24] <= 2.5\nmse = 0.0\nsamples = 2\nvalue = 11.837"] ;
622 -> 624 ;
625 [label="mse = 0.0\nsamples = 1\nvalue = 11.842"] ;
624 -> 625 ;
626 [label="mse = 0.0\nsamples = 1\nvalue = 11.831"] ;
624 -> 626 ;
627 [label="X[9] <= 1960.0\nmse = 0.0\nsamples = 3\nvalue = 11.78"] ;
621 -> 627 ;
628 [label="X[15] <= 1956.5\nmse = 0.0\nsamples = 2\nvalue = 11.771"] ;
627 -> 628 ;
629 [label="mse = 0.0\nsamples = 1\nvalue = 11.768"] ;
628 -> 629 ;
630 [label="mse = 0.0\nsamples = 1\nvalue = 11.775"] ;
628 -> 630 ;
631 [label="mse = 0.0\nsamples = 1\nvalue = 11.798"] ;
627 -> 631 ;
632 [label="X[14] <= 0.5\nmse = 0.002\nsamples = 5\nvalue = 11.653"] ;
596 -> 632 ;
633 [label="X[3] <= 960.0\nmse = 0.001\nsamples = 3\nvalue = 11.62"] ;
632 -> 633 ;
634 [label="X[3] <= 848.5\nmse = 0.0\nsamples = 2\nvalue = 11.639"] ;
633 -> 634 ;
635 [label="mse = 0.0\nsamples = 1\nvalue = 11.626"] ;
634 -> 635 ;
636 [label="mse = 0.0\nsamples = 1\nvalue = 11.653"] ;
634 -> 636 ;
637 [label="mse = -0.0\nsamples = 1\nvalue = 11.581"] ;
633 -> 637 ;
638 [label="X[45] <= 0.5\nmse = 0.0\nsamples = 2\nvalue = 11.703"] ;
632 -> 638 ;
639 [label="mse = 0.0\nsamples = 1\nvalue = 11.687"] ;
638 -> 639 ;
640 [label="mse = -0.0\nsamples = 1\nvalue = 11.72"] ;
638 -> 640 ;
641 [label="X[8] <= 283.0\nmse = 0.003\nsamples = 19\nvalue = 11.797"] ;
595 -> 641 ;
642 [label="X[0] <= 744.5\nmse = 0.002\nsamples = 5\nvalue = 11.748"] ;
641 -> 642 ;
643 [label="X[2] <= 10720.5\nmse = 0.001\nsamples = 2\nvalue = 11.707"] ;
642 -> 643 ;
644 [label="mse = 0.0\nsamples = 1\nvalue = 11.732"] ;
643 -> 644 ;
645 [label="mse = -0.0\nsamples = 1\nvalue = 11.683"] ;
643 -> 645 ;
646 [label="X[9] <= 1953.5\nmse = 0.001\nsamples = 3\nvalue = 11.775"] ;
642 -> 646 ;
647 [label="mse = 0.0\nsamples = 1\nvalue = 11.809"] ;
646 -> 647 ;
648 [label="X[121] <= 0.5\nmse = 0.0\nsamples = 2\nvalue = 11.758"] ;
646 -> 648 ;
649 [label="mse = 0.0\nsamples = 1\nvalue = 11.76"] ;
648 -> 649 ;
650 [label="mse = -0.0\nsamples = 1\nvalue = 11.756"] ;
648 -> 650 ;
651 [label="X[15] <= 1962.5\nmse = 0.002\nsamples = 14\nvalue = 11.815"] ;
641 -> 651 ;
652 [label="X[13] <= 5.5\nmse = 0.001\nsamples = 6\nvalue = 11.849"] ;
651 -> 652 ;
653 [label="X[9] <= 1960.5\nmse = 0.0\nsamples = 3\nvalue = 11.883"] ;
652 -> 653 ;
654 [label="X[23] <= 3.5\nmse = 0.0\nsamples = 2\nvalue = 11.886"] ;
653 -> 654 ;
655 [label="mse = 0.0\nsamples = 1\nvalue = 11.884"] ;
654 -> 655 ;
656 [label="mse = 0.0\nsamples = 1\nvalue = 11.888"] ;
654 -> 656 ;
657 [label="mse = -0.0\nsamples = 1\nvalue = 11.878"] ;
653 -> 657 ;
658 [label="X[146] <= 0.5\nmse = 0.0\nsamples = 3\nvalue = 11.815"] ;
652 -> 658 ;
659 [label="mse = 0.0\nsamples = 1\nvalue = 11.824"] ;
658 -> 659 ;
660 [label="X[112] <= 0.5\nmse = 0.0\nsamples = 2\nvalue = 11.811"] ;
658 -> 660 ;
661 [label="mse = 0.0\nsamples = 1\nvalue = 11.813"] ;
660 -> 661 ;
662 [label="mse = 0.0\nsamples = 1\nvalue = 11.809"] ;
660 -> 662 ;
663 [label="X[58] <= 0.5\nmse = 0.0\nsamples = 8\nvalue = 11.789"] ;
651 -> 663 ;
664 [label="X[111] <= 0.5\nmse = 0.0\nsamples = 7\nvalue = 11.783"] ;
663 -> 664 ;
665 [label="X[27] <= 1.5\nmse = 0.0\nsamples = 6\nvalue = 11.777"] ;
664 -> 665 ;
666 [label="X[1] <= 28.5\nmse = 0.0\nsamples = 4\nvalue = 11.771"] ;
665 -> 666 ;
667 [label="mse = 0.0\nsamples = 1\nvalue = 11.764"] ;
666 -> 667 ;
668 [label="X[3] <= 967.0\nmse = 0.0\nsamples = 3\nvalue = 11.774"] ;
666 -> 668 ;
669 [label="X[10] <= 1980.5\nmse = 0.0\nsamples = 2\nvalue = 11.775"] ;
668 -> 669 ;
670 [label="mse = 0.0\nsamples = 1\nvalue = 11.775"] ;
669 -> 670 ;
671 [label="mse = 0.0\nsamples = 1\nvalue = 11.775"] ;
669 -> 671 ;
672 [label="mse = -0.0\nsamples = 1\nvalue = 11.771"] ;
668 -> 672 ;
673 [label="X[57] <= 0.5\nmse = 0.0\nsamples = 2\nvalue = 11.79"] ;
665 -> 673 ;
674 [label="mse = 0.0\nsamples = 1\nvalue = 11.792"] ;
673 -> 674 ;
675 [label="mse = 0.0\nsamples = 1\nvalue = 11.787"] ;
673 -> 675 ;
676 [label="mse = -0.0\nsamples = 1\nvalue = 11.817"] ;
664 -> 676 ;
677 [label="mse = -0.0\nsamples = 1\nvalue = 11.828"] ;
663 -> 677 ;
678 [label="mse = 0.0\nsamples = 1\nvalue = 11.459"] ;
594 -> 678 ;
679 [label="X[7] <= 975.5\nmse = 0.008\nsamples = 65\nvalue = 11.849"] ;
593 -> 679 ;
680 [label="X[8] <= 322.0\nmse = 0.007\nsamples = 40\nvalue = 11.817"] ;
679 -> 680 ;
681 [label="X[181] <= 0.5\nmse = 0.01\nsamples = 8\nvalue = 11.731"] ;
680 -> 681 ;
682 [label="X[30] <= 1.5\nmse = 0.003\nsamples = 7\nvalue = 11.763"] ;
681 -> 682 ;
683 [label="X[2] <= 8100.0\nmse = 0.001\nsamples = 6\nvalue = 11.744"] ;
682 -> 683 ;
684 [label="X[81] <= 0.5\nmse = 0.0\nsamples = 2\nvalue = 11.693"] ;
683 -> 684 ;
685 [label="mse = 0.0\nsamples = 1\nvalue = 11.691"] ;
684 -> 685 ;
686 [label="mse = -0.0\nsamples = 1\nvalue = 11.694"] ;
684 -> 686 ;
687 [label="X[1] <= 66.0\nmse = 0.0\nsamples = 4\nvalue = 11.77"] ;
683 -> 687 ;
688 [label="X[174] <= 0.5\nmse = 0.0\nsamples = 2\nvalue = 11.776"] ;
687 -> 688 ;
689 [label="mse = 0.0\nsamples = 1\nvalue = 11.775"] ;
688 -> 689 ;
690 [label="mse = 0.0\nsamples = 1\nvalue = 11.777"] ;
688 -> 690 ;
691 [label="X[21] <= 5.5\nmse = 0.0\nsamples = 2\nvalue = 11.764"] ;
687 -> 691 ;
692 [label="mse = 0.0\nsamples = 1\nvalue = 11.761"] ;
691 -> 692 ;
693 [label="mse = 0.0\nsamples = 1\nvalue = 11.768"] ;
691 -> 693 ;
694 [label="mse = -0.0\nsamples = 1\nvalue = 11.871"] ;
682 -> 694 ;
695 [label="mse = -0.0\nsamples = 1\nvalue = 11.508"] ;
681 -> 695 ;
696 [label="X[180] <= 0.5\nmse = 0.004\nsamples = 32\nvalue = 11.839"] ;
680 -> 696 ;
697 [label="X[151] <= 0.5\nmse = 0.003\nsamples = 30\nvalue = 11.846"] ;
696 -> 697 ;
698 [label="X[3] <= 959.0\nmse = 0.001\nsamples = 16\nvalue = 11.82"] ;
697 -> 698 ;
699 [label="X[72] <= 0.5\nmse = 0.001\nsamples = 13\nvalue = 11.831"] ;
698 -> 699 ;
700 [label="X[7] <= 874.0\nmse = 0.001\nsamples = 10\nvalue = 11.841"] ;
699 -> 700 ;
701 [label="X[184] <= 0.5\nmse = 0.0\nsamples = 3\nvalue = 11.814"] ;
700 -> 701 ;
702 [label="X[10] <= 1977.0\nmse = 0.0\nsamples = 2\nvalue = 11.807"] ;
701 -> 702 ;
703 [label="mse = 0.0\nsamples = 1\nvalue = 11.802"] ;
702 -> 703 ;
704 [label="mse = 0.0\nsamples = 1\nvalue = 11.812"] ;
702 -> 704 ;
705 [label="mse = -0.0\nsamples = 1\nvalue = 11.828"] ;
701 -> 705 ;
706 [label="X[170] <= 0.5\nmse = 0.0\nsamples = 7\nvalue = 11.853"] ;
700 -> 706 ;
707 [label="X[19] <= 0.5\nmse = 0.0\nsamples = 4\nvalue = 11.838"] ;
706 -> 707 ;
708 [label="X[185] <= 0.5\nmse = 0.0\nsamples = 3\nvalue = 11.843"] ;
707 -> 708 ;
709 [label="X[22] <= 7.5\nmse = 0.0\nsamples = 2\nvalue = 11.84"] ;
708 -> 709 ;
710 [label="mse = 0.0\nsamples = 1\nvalue = 11.842"] ;
709 -> 710 ;
711 [label="mse = 0.0\nsamples = 1\nvalue = 11.839"] ;
709 -> 711 ;
712 [label="mse = -0.0\nsamples = 1\nvalue = 11.849"] ;
708 -> 712 ;
713 [label="mse = 0.0\nsamples = 1\nvalue = 11.82"] ;
707 -> 713 ;
714 [label="X[31] <= 1.5\nmse = 0.0\nsamples = 3\nvalue = 11.873"] ;
706 -> 714 ;
715 [label="mse = 0.0\nsamples = 1\nvalue = 11.867"] ;
714 -> 715 ;
716 [label="X[148] <= 0.5\nmse = 0.0\nsamples = 2\nvalue = 11.877"] ;
714 -> 716 ;
717 [label="mse = 0.0\nsamples = 1\nvalue = 11.878"] ;
716 -> 717 ;
718 [label="mse = 0.0\nsamples = 1\nvalue = 11.876"] ;
716 -> 718 ;
719 [label="X[24] <= 2.5\nmse = 0.001\nsamples = 3\nvalue = 11.796"] ;
699 -> 719 ;
720 [label="X[10] <= 1994.5\nmse = 0.0\nsamples = 2\nvalue = 11.777"] ;
719 -> 720 ;
721 [label="mse = 0.0\nsamples = 1\nvalue = 11.783"] ;
720 -> 721 ;
722 [label="mse = -0.0\nsamples = 1\nvalue = 11.771"] ;
720 -> 722 ;
723 [label="mse = 0.0\nsamples = 1\nvalue = 11.835"] ;
719 -> 723 ;
724 [label="X[7] <= 965.0\nmse = 0.0\nsamples = 3\nvalue = 11.774"] ;
698 -> 724 ;
725 [label="X[101] <= 0.5\nmse = 0.0\nsamples = 2\nvalue = 11.764"] ;
724 -> 725 ;
726 [label="mse = 0.0\nsamples = 1\nvalue = 11.76"] ;
725 -> 726 ;
727 [label="mse = -0.0\nsamples = 1\nvalue = 11.768"] ;
725 -> 727 ;
728 [label="mse = 0.0\nsamples = 1\nvalue = 11.794"] ;
724 -> 728 ;
729 [label="X[30] <= 1.5\nmse = 0.003\nsamples = 14\nvalue = 11.876"] ;
697 -> 729 ;
730 [label="X[1] <= 65.0\nmse = 0.002\nsamples = 8\nvalue = 11.849"] ;
729 -> 730 ;
731 [label="X[1] <= 18.0\nmse = 0.002\nsamples = 6\nvalue = 11.829"] ;
730 -> 731 ;
732 [label="X[8] <= 378.0\nmse = 0.0\nsamples = 4\nvalue = 11.855"] ;
731 -> 732 ;
733 [label="mse = 0.0\nsamples = 1\nvalue = 11.824"] ;
732 -> 733 ;
734 [label="X[10] <= 2003.5\nmse = 0.0\nsamples = 3\nvalue = 11.866"] ;
732 -> 734 ;
735 [label="mse = 0.0\nsamples = 1\nvalue = 11.849"] ;
734 -> 735 ;
736 [label="X[2] <= 4430.5\nmse = 0.0\nsamples = 2\nvalue = 11.874"] ;
734 -> 736 ;
737 [label="mse = 0.0\nsamples = 1\nvalue = 11.871"] ;
736 -> 737 ;
738 [label="mse = 0.0\nsamples = 1\nvalue = 11.878"] ;
736 -> 738 ;
739 [label="X[104] <= 0.5\nmse = 0.0\nsamples = 2\nvalue = 11.777"] ;
731 -> 739 ;
740 [label="mse = 0.0\nsamples = 1\nvalue = 11.768"] ;
739 -> 740 ;
741 [label="mse = 0.0\nsamples = 1\nvalue = 11.787"] ;
739 -> 741 ;
742 [label="X[7] <= 903.0\nmse = 0.0\nsamples = 2\nvalue = 11.908"] ;
730 -> 742 ;
743 [label="mse = 0.0\nsamples = 1\nvalue = 11.918"] ;
742 -> 743 ;
744 [label="mse = -0.0\nsamples = 1\nvalue = 11.898"] ;
742 -> 744 ;
745 [label="X[27] <= 3.5\nmse = 0.001\nsamples = 6\nvalue = 11.913"] ;
729 -> 745 ;
746 [label="X[0] <= 282.5\nmse = 0.0\nsamples = 4\nvalue = 11.935"] ;
745 -> 746 ;
747 [label="mse = 0.0\nsamples = 1\nvalue = 11.912"] ;
746 -> 747 ;
748 [label="X[0] <= 1260.5\nmse = 0.0\nsamples = 3\nvalue = 11.943"] ;
746 -> 748 ;
749 [label="X[2] <= 5987.5\nmse = 0.0\nsamples = 2\nvalue = 11.957"] ;
748 -> 749 ;
750 [label="mse = 0.0\nsamples = 1\nvalue = 11.957"] ;
749 -> 750 ;
751 [label="mse = 0.0\nsamples = 1\nvalue = 11.958"] ;
749 -> 751 ;
752 [label="mse = -0.0\nsamples = 1\nvalue = 11.914"] ;
748 -> 752 ;
753 [label="X[182] <= 0.5\nmse = 0.0\nsamples = 2\nvalue = 11.869"] ;
745 -> 753 ;
754 [label="mse = 0.0\nsamples = 1\nvalue = 11.881"] ;
753 -> 754 ;
755 [label="mse = 0.0\nsamples = 1\nvalue = 11.857"] ;
753 -> 755 ;
756 [label="X[2] <= 6067.5\nmse = 0.009\nsamples = 2\nvalue = 11.727"] ;
696 -> 756 ;
757 [label="mse = 0.0\nsamples = 1\nvalue = 11.824"] ;
756 -> 757 ;
758 [label="mse = -0.0\nsamples = 1\nvalue = 11.631"] ;
756 -> 758 ;
759 [label="X[2] <= 11830.5\nmse = 0.005\nsamples = 25\nvalue = 11.9"] ;
679 -> 759 ;
760 [label="X[15] <= 1994.0\nmse = 0.003\nsamples = 22\nvalue = 11.883"] ;
759 -> 760 ;
761 [label="X[50] <= 0.5\nmse = 0.002\nsamples = 20\nvalue = 11.892"] ;
760 -> 761 ;
762 [label="X[22] <= 6.5\nmse = 0.001\nsamples = 19\nvalue = 11.898"] ;
761 -> 762 ;
763 [label="X[145] <= 0.5\nmse = 0.001\nsamples = 12\nvalue = 11.878"] ;
762 -> 763 ;
764 [label="X[8] <= 372.0\nmse = 0.0\nsamples = 11\nvalue = 11.884"] ;
763 -> 764 ;
765 [label="X[155] <= 0.5\nmse = 0.0\nsamples = 2\nvalue = 11.851"] ;
764 -> 765 ;
766 [label="mse = 0.0\nsamples = 1\nvalue = 11.864"] ;
765 -> 766 ;
767 [label="mse = 0.0\nsamples = 1\nvalue = 11.839"] ;
765 -> 767 ;
768 [label="X[180] <= 0.5\nmse = 0.0\nsamples = 9\nvalue = 11.891"] ;
764 -> 768 ;
769 [label="X[3] <= 1044.0\nmse = 0.0\nsamples = 7\nvalue = 11.897"] ;
768 -> 769 ;
770 [label="X[155] <= 0.5\nmse = 0.0\nsamples = 6\nvalue = 11.901"] ;
769 -> 770 ;
771 [label="X[3] <= 984.5\nmse = 0.0\nsamples = 4\nvalue = 11.898"] ;
770 -> 771 ;
772 [label="mse = -0.0\nsamples = 3\nvalue = 11.898"] ;
771 -> 772 ;
773 [label="mse = 0.0\nsamples = 1\nvalue = 11.897"] ;
771 -> 773 ;
774 [label="X[15] <= 1975.5\nmse = 0.0\nsamples = 2\nvalue = 11.907"] ;
770 -> 774 ;
775 [label="mse = 0.0\nsamples = 1\nvalue = 11.908"] ;
774 -> 775 ;
776 [label="mse = 0.0\nsamples = 1\nvalue = 11.905"] ;
774 -> 776 ;
777 [label="mse = -0.0\nsamples = 1\nvalue = 11.878"] ;
769 -> 777 ;
778 [label="X[148] <= 0.5\nmse = 0.0\nsamples = 2\nvalue = 11.87"] ;
768 -> 778 ;
779 [label="mse = 0.0\nsamples = 1\nvalue = 11.867"] ;
778 -> 779 ;
780 [label="mse = 0.0\nsamples = 1\nvalue = 11.872"] ;
778 -> 780 ;
781 [label="mse = -0.0\nsamples = 1\nvalue = 11.813"] ;
763 -> 781 ;
782 [label="X[148] <= 0.5\nmse = 0.0\nsamples = 7\nvalue = 11.933"] ;
762 -> 782 ;
783 [label="X[1] <= 72.5\nmse = 0.0\nsamples = 5\nvalue = 11.925"] ;
782 -> 783 ;
784 [label="X[7] <= 1022.0\nmse = 0.0\nsamples = 4\nvalue = 11.919"] ;
783 -> 784 ;
785 [label="X[180] <= 0.5\nmse = 0.0\nsamples = 2\nvalue = 11.915"] ;
784 -> 785 ;
786 [label="mse = 0.0\nsamples = 1\nvalue = 11.918"] ;
785 -> 786 ;
787 [label="mse = 0.0\nsamples = 1\nvalue = 11.912"] ;
785 -> 787 ;
788 [label="X[7] <= 1047.0\nmse = 0.0\nsamples = 2\nvalue = 11.923"] ;
784 -> 788 ;
789 [label="mse = 0.0\nsamples = 1\nvalue = 11.922"] ;
788 -> 789 ;
790 [label="mse = -0.0\nsamples = 1\nvalue = 11.925"] ;
788 -> 790 ;
791 [label="mse = 0.0\nsamples = 1\nvalue = 11.951"] ;
783 -> 791 ;
792 [label="X[3] <= 1043.0\nmse = 0.0\nsamples = 2\nvalue = 11.951"] ;
782 -> 792 ;
793 [label="mse = 0.0\nsamples = 1\nvalue = 11.958"] ;
792 -> 793 ;
794 [label="mse = 0.0\nsamples = 1\nvalue = 11.945"] ;
792 -> 794 ;
795 [label="mse = -0.0\nsamples = 1\nvalue = 11.775"] ;
761 -> 795 ;
796 [label="X[174] <= 0.5\nmse = 0.001\nsamples = 2\nvalue = 11.797"] ;
760 -> 796 ;
797 [label="mse = 0.0\nsamples = 1\nvalue = 11.76"] ;
796 -> 797 ;
798 [label="mse = 0.0\nsamples = 1\nvalue = 11.835"] ;
796 -> 798 ;
799 [label="X[4] <= 1037.0\nmse = 0.005\nsamples = 3\nvalue = 12.025"] ;
759 -> 799 ;
800 [label="X[2] <= 16890.5\nmse = 0.001\nsamples = 2\nvalue = 12.072"] ;
799 -> 800 ;
801 [label="mse = 0.0\nsamples = 1\nvalue = 12.043"] ;
800 -> 801 ;
802 [label="mse = 0.0\nsamples = 1\nvalue = 12.101"] ;
800 -> 802 ;
803 [label="mse = 0.0\nsamples = 1\nvalue = 11.932"] ;
799 -> 803 ;
804 [label="X[22] <= 3.5\nmse = 0.024\nsamples = 151\nvalue = 11.914"] ;
452 -> 804 ;
805 [label="X[114] <= 0.5\nmse = 0.062\nsamples = 2\nvalue = 11.25"] ;
804 -> 805 ;
806 [label="mse = 0.0\nsamples = 1\nvalue = 11.002"] ;
805 -> 806 ;
807 [label="mse = 0.0\nsamples = 1\nvalue = 11.499"] ;
805 -> 807 ;
808 [label="X[3] <= 1199.5\nmse = 0.018\nsamples = 149\nvalue = 11.923"] ;
804 -> 808 ;
809 [label="X[15] <= 1962.5\nmse = 0.015\nsamples = 101\nvalue = 11.882"] ;
808 -> 809 ;
810 [label="X[174] <= 0.5\nmse = 0.015\nsamples = 44\nvalue = 11.826"] ;
809 -> 810 ;
811 [label="X[0] <= 1450.5\nmse = 0.013\nsamples = 39\nvalue = 11.844"] ;
810 -> 811 ;
812 [label="X[4] <= 1354.5\nmse = 0.007\nsamples = 37\nvalue = 11.857"] ;
811 -> 812 ;
813 [label="X[9] <= 1953.5\nmse = 0.005\nsamples = 35\nvalue = 11.846"] ;
812 -> 813 ;
814 [label="X[10] <= 2004.5\nmse = 0.001\nsamples = 5\nvalue = 11.937"] ;
813 -> 814 ;
815 [label="X[4] <= 1123.0\nmse = 0.0\nsamples = 3\nvalue = 11.963"] ;
814 -> 815 ;
816 [label="mse = 0.0\nsamples = 1\nvalue = 11.951"] ;
815 -> 816 ;
817 [label="X[21] <= 5.5\nmse = 0.0\nsamples = 2\nvalue = 11.969"] ;
815 -> 817 ;
818 [label="mse = 0.0\nsamples = 1\nvalue = 11.964"] ;
817 -> 818 ;
819 [label="mse = 0.0\nsamples = 1\nvalue = 11.974"] ;
817 -> 819 ;
820 [label="mse = 0.0\nsamples = 2\nvalue = 11.898"] ;
814 -> 820 ;
821 [label="X[0] <= 1336.5\nmse = 0.004\nsamples = 30\nvalue = 11.831"] ;
813 -> 821 ;
822 [label="X[179] <= 0.5\nmse = 0.003\nsamples = 28\nvalue = 11.823"] ;
821 -> 822 ;
823 [label="X[9] <= 1954.5\nmse = 0.002\nsamples = 27\nvalue = 11.817"] ;
822 -> 823 ;
824 [label="mse = 0.0\nsamples = 1\nvalue = 11.678"] ;
823 -> 824 ;
825 [label="X[2] <= 6981.5\nmse = 0.002\nsamples = 26\nvalue = 11.823"] ;
823 -> 825 ;
826 [label="X[0] <= 341.5\nmse = 0.0\nsamples = 3\nvalue = 11.763"] ;
825 -> 826 ;
827 [label="mse = 0.0\nsamples = 1\nvalue = 11.745"] ;
826 -> 827 ;
828 [label="X[16] <= 1.5\nmse = 0.0\nsamples = 2\nvalue = 11.771"] ;
826 -> 828 ;
829 [label="mse = 0.0\nsamples = 1\nvalue = 11.775"] ;
828 -> 829 ;
830 [label="mse = 0.0\nsamples = 1\nvalue = 11.768"] ;
828 -> 830 ;
831 [label="X[1] <= 76.0\nmse = 0.001\nsamples = 23\nvalue = 11.831"] ;
825 -> 831 ;
832 [label="X[3] <= 1149.0\nmse = 0.001\nsamples = 21\nvalue = 11.836"] ;
831 -> 832 ;
833 [label="X[159] <= 0.5\nmse = 0.001\nsamples = 17\nvalue = 11.828"] ;
832 -> 833 ;
834 [label="X[30] <= 0.5\nmse = 0.0\nsamples = 2\nvalue = 11.877"] ;
833 -> 834 ;
835 [label="mse = 0.0\nsamples = 1\nvalue = 11.898"] ;
834 -> 835 ;
836 [label="mse = 0.0\nsamples = 1\nvalue = 11.857"] ;
834 -> 836 ;
837 [label="X[8] <= 734.0\nmse = 0.001\nsamples = 15\nvalue = 11.822"] ;
833 -> 837 ;
838 [label="X[8] <= 532.5\nmse = 0.001\nsamples = 14\nvalue = 11.819"] ;
837 -> 838 ;
839 [label="X[22] <= 5.5\nmse = 0.0\nsamples = 11\nvalue = 11.828"] ;
838 -> 839 ;
840 [label="X[2] <= 13233.0\nmse = 0.0\nsamples = 2\nvalue = 11.849"] ;
839 -> 840 ;
841 [label="mse = 0.0\nsamples = 1\nvalue = 11.842"] ;
840 -> 841 ;
842 [label="mse = 0.0\nsamples = 1\nvalue = 11.857"] ;
840 -> 842 ;
843 [label="X[8] <= 451.5\nmse = 0.0\nsamples = 9\nvalue = 11.823"] ;
839 -> 843 ;
844 [label="X[0] <= 71.5\nmse = 0.0\nsamples = 7\nvalue = 11.818"] ;
843 -> 844 ;
845 [label="mse = 0.0\nsamples = 1\nvalue = 11.842"] ;
844 -> 845 ;
846 [label="X[21] <= 5.5\nmse = 0.0\nsamples = 6\nvalue = 11.814"] ;
844 -> 846 ;
847 [label="X[29] <= 6.5\nmse = 0.0\nsamples = 5\nvalue = 11.812"] ;
846 -> 847 ;
848 [label="mse = 0.0\nsamples = 1\nvalue = 11.809"] ;
847 -> 848 ;
849 [label="mse = 0.0\nsamples = 4\nvalue = 11.813"] ;
847 -> 849 ;
850 [label="mse = -0.0\nsamples = 1\nvalue = 11.82"] ;
846 -> 850 ;
851 [label="X[170] <= 0.5\nmse = 0.0\nsamples = 2\nvalue = 11.84"] ;
843 -> 851 ;
852 [label="mse = 0.0\nsamples = 1\nvalue = 11.831"] ;
851 -> 852 ;
853 [label="mse = 0.0\nsamples = 1\nvalue = 11.849"] ;
851 -> 853 ;
854 [label="X[1] <= 69.0\nmse = 0.0\nsamples = 3\nvalue = 11.785"] ;
838 -> 854 ;
855 [label="mse = 0.0\nsamples = 1\nvalue = 11.768"] ;
854 -> 855 ;
856 [label="mse = 0.0\nsamples = 2\nvalue = 11.794"] ;
854 -> 856 ;
857 [label="mse = 0.0\nsamples = 1\nvalue = 11.871"] ;
837 -> 857 ;
858 [label="X[182] <= 0.5\nmse = 0.001\nsamples = 4\nvalue = 11.867"] ;
832 -> 858 ;
859 [label="mse = 0.0\nsamples = 1\nvalue = 11.905"] ;
858 -> 859 ;
860 [label="X[11] <= 2.5\nmse = 0.0\nsamples = 3\nvalue = 11.854"] ;
858 -> 860 ;
861 [label="mse = 0.0\nsamples = 1\nvalue = 11.842"] ;
860 -> 861 ;
862 [label="X[112] <= 0.5\nmse = 0.0\nsamples = 2\nvalue = 11.86"] ;
860 -> 862 ;
863 [label="mse = 0.0\nsamples = 1\nvalue = 11.864"] ;
862 -> 863 ;
864 [label="mse = -0.0\nsamples = 1\nvalue = 11.857"] ;
862 -> 864 ;
865 [label="X[87] <= 0.5\nmse = 0.0\nsamples = 2\nvalue = 11.777"] ;
831 -> 865 ;
866 [label="mse = 0.0\nsamples = 1\nvalue = 11.786"] ;
865 -> 866 ;
867 [label="mse = 0.0\nsamples = 1\nvalue = 11.767"] ;
865 -> 867 ;
868 [label="mse = -0.0\nsamples = 1\nvalue = 11.983"] ;
822 -> 868 ;
869 [label="X[21] <= 5.5\nmse = 0.001\nsamples = 2\nvalue = 11.943"] ;
821 -> 869 ;
870 [label="mse = 0.0\nsamples = 1\nvalue = 11.97"] ;
869 -> 870 ;
871 [label="mse = 0.0\nsamples = 1\nvalue = 11.916"] ;
869 -> 871 ;
872 [label="X[31] <= 1.5\nmse = 0.001\nsamples = 2\nvalue = 12.048"] ;
812 -> 872 ;
873 [label="mse = 0.0\nsamples = 1\nvalue = 12.013"] ;
872 -> 873 ;
874 [label="mse = -0.0\nsamples = 1\nvalue = 12.084"] ;
872 -> 874 ;
875 [label="X[168] <= 0.5\nmse = 0.068\nsamples = 2\nvalue = 11.604"] ;
811 -> 875 ;
876 [label="mse = 0.0\nsamples = 1\nvalue = 11.864"] ;
875 -> 876 ;
877 [label="mse = 0.0\nsamples = 1\nvalue = 11.345"] ;
875 -> 877 ;
878 [label="X[7] <= 1192.0\nmse = 0.006\nsamples = 5\nvalue = 11.682"] ;
810 -> 878 ;
879 [label="X[21] <= 5.5\nmse = 0.0\nsamples = 4\nvalue = 11.719"] ;
878 -> 879 ;
880 [label="X[35] <= 0.5\nmse = 0.0\nsamples = 3\nvalue = 11.729"] ;
879 -> 880 ;
881 [label="X[186] <= 0.5\nmse = 0.0\nsamples = 2\nvalue = 11.726"] ;
880 -> 881 ;
882 [label="mse = 0.0\nsamples = 1\nvalue = 11.728"] ;
881 -> 882 ;
883 [label="mse = -0.0\nsamples = 1\nvalue = 11.724"] ;
881 -> 883 ;
884 [label="mse = -0.0\nsamples = 1\nvalue = 11.736"] ;
880 -> 884 ;
885 [label="mse = -0.0\nsamples = 1\nvalue = 11.689"] ;
879 -> 885 ;
886 [label="mse = -0.0\nsamples = 1\nvalue = 11.533"] ;
878 -> 886 ;
887 [label="X[11] <= 0.5\nmse = 0.011\nsamples = 57\nvalue = 11.925"] ;
809 -> 887 ;
888 [label="mse = 0.0\nsamples = 1\nvalue = 11.599"] ;
887 -> 888 ;
889 [label="X[2] <= 8332.0\nmse = 0.01\nsamples = 56\nvalue = 11.931"] ;
887 -> 889 ;
890 [label="X[44] <= 0.5\nmse = 0.014\nsamples = 14\nvalue = 11.859"] ;
889 -> 890 ;
891 [label="X[9] <= 1978.0\nmse = 0.007\nsamples = 12\nvalue = 11.892"] ;
890 -> 891 ;
892 [label="X[22] <= 5.5\nmse = 0.003\nsamples = 8\nvalue = 11.847"] ;
891 -> 892 ;
893 [label="X[0] <= 1322.0\nmse = 0.001\nsamples = 3\nvalue = 11.789"] ;
892 -> 893 ;
894 [label="mse = 0.0\nsamples = 2\nvalue = 11.806"] ;
893 -> 894 ;
895 [label="mse = -0.0\nsamples = 1\nvalue = 11.756"] ;
893 -> 895 ;
896 [label="X[0] <= 410.5\nmse = 0.001\nsamples = 5\nvalue = 11.882"] ;
892 -> 896 ;
897 [label="X[2] <= 8083.5\nmse = 0.0\nsamples = 3\nvalue = 11.904"] ;
896 -> 897 ;
898 [label="X[174] <= 0.5\nmse = 0.0\nsamples = 2\nvalue = 11.914"] ;
897 -> 898 ;
899 [label="mse = 0.0\nsamples = 1\nvalue = 11.905"] ;
898 -> 899 ;
900 [label="mse = 0.0\nsamples = 1\nvalue = 11.923"] ;
898 -> 900 ;
901 [label="mse = -0.0\nsamples = 1\nvalue = 11.884"] ;
897 -> 901 ;
902 [label="mse = 0.0\nsamples = 2\nvalue = 11.849"] ;
896 -> 902 ;
903 [label="X[0] <= 951.0\nmse = 0.003\nsamples = 4\nvalue = 11.982"] ;
891 -> 903 ;
904 [label="X[15] <= 1999.0\nmse = 0.0\nsamples = 3\nvalue = 11.949"] ;
903 -> 904 ;
905 [label="X[87] <= 0.5\nmse = 0.0\nsamples = 2\nvalue = 11.942"] ;
904 -> 905 ;
906 [label="mse = 0.0\nsamples = 1\nvalue = 11.94"] ;
905 -> 906 ;
907 [label="mse = 0.0\nsamples = 1\nvalue = 11.944"] ;
905 -> 907 ;
908 [label="mse = -0.0\nsamples = 1\nvalue = 11.964"] ;
904 -> 908 ;
909 [label="mse = 0.0\nsamples = 1\nvalue = 12.078"] ;
903 -> 909 ;
910 [label="X[2] <= 7509.5\nmse = 0.006\nsamples = 2\nvalue = 11.658"] ;
890 -> 910 ;
911 [label="mse = 0.0\nsamples = 1\nvalue = 11.736"] ;
910 -> 911 ;
912 [label="mse = 0.0\nsamples = 1\nvalue = 11.581"] ;
910 -> 912 ;
913 [label="X[155] <= 0.5\nmse = 0.006\nsamples = 42\nvalue = 11.955"] ;
889 -> 913 ;
914 [label="X[10] <= 1973.5\nmse = 0.005\nsamples = 26\nvalue = 11.926"] ;
913 -> 914 ;
915 [label="X[0] <= 669.5\nmse = 0.0\nsamples = 4\nvalue = 11.841"] ;
914 -> 915 ;
916 [label="mse = 0.0\nsamples = 1\nvalue = 11.831"] ;
915 -> 916 ;
917 [label="X[144] <= 0.5\nmse = 0.0\nsamples = 3\nvalue = 11.844"] ;
915 -> 917 ;
918 [label="X[22] <= 5.5\nmse = 0.0\nsamples = 2\nvalue = 11.842"] ;
917 -> 918 ;
919 [label="mse = 0.0\nsamples = 1\nvalue = 11.841"] ;
918 -> 919 ;
920 [label="mse = 0.0\nsamples = 1\nvalue = 11.842"] ;
918 -> 920 ;
921 [label="mse = -0.0\nsamples = 1\nvalue = 11.849"] ;
917 -> 921 ;
922 [label="X[10] <= 1980.0\nmse = 0.004\nsamples = 22\nvalue = 11.941"] ;
914 -> 922 ;
923 [label="X[0] <= 1188.0\nmse = 0.002\nsamples = 5\nvalue = 12.02"] ;
922 -> 923 ;
924 [label="X[151] <= 0.5\nmse = 0.0\nsamples = 3\nvalue = 12.058"] ;
923 -> 924 ;
925 [label="X[1] <= 75.5\nmse = 0.0\nsamples = 2\nvalue = 12.051"] ;
924 -> 925 ;
926 [label="mse = 0.0\nsamples = 1\nvalue = 12.052"] ;
925 -> 926 ;
927 [label="mse = 0.0\nsamples = 1\nvalue = 12.049"] ;
925 -> 927 ;
928 [label="mse = -0.0\nsamples = 1\nvalue = 12.073"] ;
924 -> 928 ;
929 [label="X[7] <= 1100.0\nmse = 0.0\nsamples = 2\nvalue = 11.962"] ;
923 -> 929 ;
930 [label="mse = 0.0\nsamples = 1\nvalue = 11.941"] ;
929 -> 930 ;
931 [label="mse = 0.0\nsamples = 1\nvalue = 11.983"] ;
929 -> 931 ;
932 [label="X[57] <= 0.5\nmse = 0.002\nsamples = 17\nvalue = 11.918"] ;
922 -> 932 ;
933 [label="mse = 0.0\nsamples = 1\nvalue = 11.806"] ;
932 -> 933 ;
934 [label="X[28] <= 3.5\nmse = 0.002\nsamples = 16\nvalue = 11.925"] ;
932 -> 934 ;
935 [label="X[180] <= 0.5\nmse = 0.001\nsamples = 9\nvalue = 11.907"] ;
934 -> 935 ;
936 [label="X[183] <= 0.5\nmse = 0.001\nsamples = 7\nvalue = 11.921"] ;
935 -> 936 ;
937 [label="X[2] <= 9192.0\nmse = 0.0\nsamples = 5\nvalue = 11.937"] ;
936 -> 937 ;
938 [label="X[19] <= 0.5\nmse = 0.0\nsamples = 3\nvalue = 11.946"] ;
937 -> 938 ;
939 [label="X[80] <= 0.5\nmse = 0.0\nsamples = 2\nvalue = 11.95"] ;
938 -> 939 ;
940 [label="mse = 0.0\nsamples = 1\nvalue = 11.951"] ;
939 -> 940 ;
941 [label="mse = 0.0\nsamples = 1\nvalue = 11.948"] ;
939 -> 941 ;
942 [label="mse = 0.0\nsamples = 1\nvalue = 11.938"] ;
938 -> 942 ;
943 [label="X[21] <= 5.5\nmse = 0.0\nsamples = 2\nvalue = 11.925"] ;
937 -> 943 ;
944 [label="mse = 0.0\nsamples = 1\nvalue = 11.918"] ;
943 -> 944 ;
945 [label="mse = 0.0\nsamples = 1\nvalue = 11.932"] ;
943 -> 945 ;
946 [label="X[9] <= 1976.0\nmse = 0.0\nsamples = 2\nvalue = 11.881"] ;
936 -> 946 ;
947 [label="mse = 0.0\nsamples = 1\nvalue = 11.878"] ;
946 -> 947 ;
948 [label="mse = 0.0\nsamples = 1\nvalue = 11.884"] ;
946 -> 948 ;
949 [label="X[1] <= 71.5\nmse = 0.0\nsamples = 2\nvalue = 11.858"] ;
935 -> 949 ;
950 [label="mse = 0.0\nsamples = 1\nvalue = 11.867"] ;
949 -> 950 ;
951 [label="mse = -0.0\nsamples = 1\nvalue = 11.849"] ;
949 -> 951 ;
952 [label="X[0] <= 778.5\nmse = 0.002\nsamples = 7\nvalue = 11.949"] ;
934 -> 952 ;
953 [label="X[24] <= 2.5\nmse = 0.0\nsamples = 4\nvalue = 11.977"] ;
952 -> 953 ;
954 [label="X[177] <= 0.5\nmse = 0.0\nsamples = 3\nvalue = 11.97"] ;
953 -> 954 ;
955 [label="X[1] <= 64.5\nmse = 0.0\nsamples = 2\nvalue = 11.974"] ;
954 -> 955 ;
956 [label="mse = 0.0\nsamples = 1\nvalue = 11.97"] ;
955 -> 956 ;
957 [label="mse = 0.0\nsamples = 1\nvalue = 11.977"] ;
955 -> 957 ;
958 [label="mse = -0.0\nsamples = 1\nvalue = 11.964"] ;
954 -> 958 ;
959 [label="mse = -0.0\nsamples = 1\nvalue = 11.995"] ;
953 -> 959 ;
960 [label="X[87] <= 0.5\nmse = 0.001\nsamples = 3\nvalue = 11.911"] ;
952 -> 960 ;
961 [label="mse = 0.0\nsamples = 1\nvalue = 11.951"] ;
960 -> 961 ;
962 [label="X[22] <= 6.5\nmse = 0.0\nsamples = 2\nvalue = 11.891"] ;
960 -> 962 ;
963 [label="mse = 0.0\nsamples = 1\nvalue = 11.878"] ;
962 -> 963 ;
964 [label="mse = 0.0\nsamples = 1\nvalue = 11.905"] ;
962 -> 964 ;
965 [label="X[144] <= 0.5\nmse = 0.004\nsamples = 16\nvalue = 12.002"] ;
913 -> 965 ;
966 [label="X[10] <= 1988.0\nmse = 0.002\nsamples = 10\nvalue = 11.959"] ;
965 -> 966 ;
967 [label="X[8] <= 544.5\nmse = 0.001\nsamples = 8\nvalue = 11.977"] ;
966 -> 967 ;
968 [label="X[22] <= 5.5\nmse = 0.0\nsamples = 6\nvalue = 11.965"] ;
967 -> 968 ;
969 [label="X[1] <= 42.0\nmse = 0.0\nsamples = 3\nvalue = 11.979"] ;
968 -> 969 ;
970 [label="mse = 0.0\nsamples = 1\nvalue = 11.97"] ;
969 -> 970 ;
971 [label="mse = 0.0\nsamples = 2\nvalue = 11.983"] ;
969 -> 971 ;
972 [label="X[14] <= 0.5\nmse = 0.0\nsamples = 3\nvalue = 11.951"] ;
968 -> 972 ;
973 [label="X[27] <= 1.5\nmse = 0.0\nsamples = 2\nvalue = 11.954"] ;
972 -> 973 ;
974 [label="mse = 0.0\nsamples = 1\nvalue = 11.958"] ;
973 -> 974 ;
975 [label="mse = 0.0\nsamples = 1\nvalue = 11.951"] ;
973 -> 975 ;
976 [label="mse = 0.0\nsamples = 1\nvalue = 11.945"] ;
972 -> 976 ;
977 [label="X[72] <= 0.5\nmse = 0.0\nsamples = 2\nvalue = 12.014"] ;
967 -> 977 ;
978 [label="mse = 0.0\nsamples = 1\nvalue = 12.011"] ;
977 -> 978 ;
979 [label="mse = -0.0\nsamples = 1\nvalue = 12.017"] ;
977 -> 979 ;
980 [label="X[87] <= 0.5\nmse = 0.0\nsamples = 2\nvalue = 11.888"] ;
966 -> 980 ;
981 [label="mse = 0.0\nsamples = 1\nvalue = 11.891"] ;
980 -> 981 ;
982 [label="mse = 0.0\nsamples = 1\nvalue = 11.884"] ;
980 -> 982 ;
983 [label="X[185] <= 0.5\nmse = 0.001\nsamples = 6\nvalue = 12.072"] ;
965 -> 983 ;
984 [label="X[114] <= 0.5\nmse = 0.0\nsamples = 5\nvalue = 12.084"] ;
983 -> 984 ;
985 [label="X[69] <= 0.5\nmse = 0.0\nsamples = 3\nvalue = 12.07"] ;
984 -> 985 ;
986 [label="X[30] <= 1.5\nmse = 0.0\nsamples = 2\nvalue = 12.075"] ;
985 -> 986 ;
987 [label="mse = 0.0\nsamples = 1\nvalue = 12.072"] ;
986 -> 987 ;
988 [label="mse = 0.0\nsamples = 1\nvalue = 12.078"] ;
986 -> 988 ;
989 [label="mse = -0.0\nsamples = 1\nvalue = 12.061"] ;
985 -> 989 ;
990 [label="X[106] <= 0.5\nmse = 0.0\nsamples = 2\nvalue = 12.105"] ;
984 -> 990 ;
991 [label="mse = 0.0\nsamples = 1\nvalue = 12.103"] ;
990 -> 991 ;
992 [label="mse = 0.0\nsamples = 1\nvalue = 12.106"] ;
990 -> 992 ;
993 [label="mse = -0.0\nsamples = 1\nvalue = 12.014"] ;
983 -> 993 ;
994 [label="X[25] <= 12.5\nmse = 0.013\nsamples = 48\nvalue = 12.008"] ;
808 -> 994 ;
995 [label="X[27] <= 2.5\nmse = 0.005\nsamples = 24\nvalue = 11.939"] ;
994 -> 995 ;
996 [label="X[10] <= 1955.5\nmse = 0.004\nsamples = 21\nvalue = 11.922"] ;
995 -> 996 ;
997 [label="X[114] <= 0.5\nmse = 0.001\nsamples = 2\nvalue = 11.82"] ;
996 -> 997 ;
998 [label="mse = 0.0\nsamples = 1\nvalue = 11.791"] ;
997 -> 998 ;
999 [label="mse = 0.0\nsamples = 1\nvalue = 11.849"] ;
997 -> 999 ;
1000 [label="X[30] <= 2.5\nmse = 0.003\nsamples = 19\nvalue = 11.932"] ;
996 -> 1000 ;
1001 [label="X[8] <= 406.5\nmse = 0.001\nsamples = 11\nvalue = 11.907"] ;
1000 -> 1001 ;
1002 [label="X[112] <= 0.5\nmse = 0.001\nsamples = 8\nvalue = 11.923"] ;
1001 -> 1002 ;
1003 [label="X[13] <= 5.5\nmse = 0.0\nsamples = 3\nvalue = 11.953"] ;
1002 -> 1003 ;
1004 [label="mse = 0.0\nsamples = 1\nvalue = 11.964"] ;
1003 -> 1004 ;
1005 [label="X[141] <= 0.5\nmse = 0.0\nsamples = 2\nvalue = 11.948"] ;
1003 -> 1005 ;
1006 [label="mse = 0.0\nsamples = 1\nvalue = 11.951"] ;
1005 -> 1006 ;
1007 [label="mse = -0.0\nsamples = 1\nvalue = 11.945"] ;
1005 -> 1007 ;
1008 [label="X[168] <= 0.5\nmse = 0.001\nsamples = 5\nvalue = 11.904"] ;
1002 -> 1008 ;
1009 [label="mse = 0.0\nsamples = 1\nvalue = 11.951"] ;
1008 -> 1009 ;
1010 [label="X[73] <= 0.5\nmse = 0.0\nsamples = 4\nvalue = 11.893"] ;
1008 -> 1010 ;
1011 [label="X[17] <= 1.5\nmse = 0.0\nsamples = 2\nvalue = 11.908"] ;
1010 -> 1011 ;
1012 [label="mse = 0.0\nsamples = 1\nvalue = 11.914"] ;
1011 -> 1012 ;
1013 [label="mse = 0.0\nsamples = 1\nvalue = 11.902"] ;
1011 -> 1013 ;
1014 [label="X[30] <= 1.0\nmse = 0.0\nsamples = 2\nvalue = 11.878"] ;
1010 -> 1014 ;
1015 [label="mse = 0.0\nsamples = 1\nvalue = 11.884"] ;
1014 -> 1015 ;
1016 [label="mse = 0.0\nsamples = 1\nvalue = 11.871"] ;
1014 -> 1016 ;
1017 [label="X[174] <= 0.5\nmse = 0.0\nsamples = 3\nvalue = 11.866"] ;
1001 -> 1017 ;
1018 [label="mse = 0.0\nsamples = 1\nvalue = 11.884"] ;
1017 -> 1018 ;
1019 [label="X[131] <= 0.5\nmse = 0.0\nsamples = 2\nvalue = 11.856"] ;
1017 -> 1019 ;
1020 [label="mse = 0.0\nsamples = 1\nvalue = 11.864"] ;
1019 -> 1020 ;
1021 [label="mse = -0.0\nsamples = 1\nvalue = 11.849"] ;
1019 -> 1021 ;
1022 [label="X[0] <= 1229.5\nmse = 0.002\nsamples = 8\nvalue = 11.967"] ;
1000 -> 1022 ;
1023 [label="X[9] <= 1957.5\nmse = 0.001\nsamples = 7\nvalue = 11.981"] ;
1022 -> 1023 ;
1024 [label="X[182] <= 0.5\nmse = 0.0\nsamples = 2\nvalue = 11.928"] ;
1023 -> 1024 ;
1025 [label="mse = 0.0\nsamples = 1\nvalue = 11.938"] ;
1024 -> 1025 ;
1026 [label="mse = 0.0\nsamples = 1\nvalue = 11.918"] ;
1024 -> 1026 ;
1027 [label="X[181] <= 0.5\nmse = 0.0\nsamples = 5\nvalue = 12.001"] ;
1023 -> 1027 ;
1028 [label="X[9] <= 1962.5\nmse = 0.0\nsamples = 4\nvalue = 11.995"] ;
1027 -> 1028 ;
1029 [label="mse = 0.0\nsamples = 2\nvalue = 12.002"] ;
1028 -> 1029 ;
1030 [label="X[186] <= 0.5\nmse = 0.0\nsamples = 2\nvalue = 11.988"] ;
1028 -> 1030 ;
1031 [label="mse = 0.0\nsamples = 1\nvalue = 11.983"] ;
1030 -> 1031 ;
1032 [label="mse = 0.0\nsamples = 1\nvalue = 11.992"] ;
1030 -> 1032 ;
1033 [label="mse = 0.0\nsamples = 1\nvalue = 12.029"] ;
1027 -> 1033 ;
1034 [label="mse = -0.0\nsamples = 1\nvalue = 11.871"] ;
1022 -> 1034 ;
1035 [label="X[176] <= 0.5\nmse = 0.001\nsamples = 3\nvalue = 12.059"] ;
995 -> 1035 ;
1036 [label="X[17] <= 1.5\nmse = 0.0\nsamples = 2\nvalue = 12.039"] ;
1035 -> 1036 ;
1037 [label="mse = 0.0\nsamples = 1\nvalue = 12.044"] ;
1036 -> 1037 ;
1038 [label="mse = -0.0\nsamples = 1\nvalue = 12.035"] ;
1036 -> 1038 ;
1039 [label="mse = -0.0\nsamples = 1\nvalue = 12.1"] ;
1035 -> 1039 ;
1040 [label="X[13] <= 4.5\nmse = 0.01\nsamples = 24\nvalue = 12.078"] ;
994 -> 1040 ;
1041 [label="X[126] <= 0.5\nmse = 0.004\nsamples = 2\nvalue = 12.307"] ;
1040 -> 1041 ;
1042 [label="mse = 0.0\nsamples = 1\nvalue = 12.247"] ;
1041 -> 1042 ;
1043 [label="mse = 0.0\nsamples = 1\nvalue = 12.367"] ;
1041 -> 1043 ;
1044 [label="X[8] <= 421.5\nmse = 0.006\nsamples = 22\nvalue = 12.057"] ;
1040 -> 1044 ;
1045 [label="X[2] <= 9793.5\nmse = 0.005\nsamples = 9\nvalue = 12.005"] ;
1044 -> 1045 ;
1046 [label="X[26] <= 3.5\nmse = 0.002\nsamples = 6\nvalue = 11.967"] ;
1045 -> 1046 ;
1047 [label="X[15] <= 1981.0\nmse = 0.0\nsamples = 4\nvalue = 11.997"] ;
1046 -> 1047 ;
1048 [label="mse = 0.0\nsamples = 1\nvalue = 11.97"] ;
1047 -> 1048 ;
1049 [label="X[4] <= 1210.0\nmse = 0.0\nsamples = 3\nvalue = 12.006"] ;
1047 -> 1049 ;
1050 [label="mse = 0.0\nsamples = 1\nvalue = 11.995"] ;
1049 -> 1050 ;
1051 [label="X[103] <= 0.5\nmse = 0.0\nsamples = 2\nvalue = 12.011"] ;
1049 -> 1051 ;
1052 [label="mse = 0.0\nsamples = 1\nvalue = 12.014"] ;
1051 -> 1052 ;
1053 [label="mse = -0.0\nsamples = 1\nvalue = 12.008"] ;
1051 -> 1053 ;
1054 [label="X[25] <= 20.5\nmse = 0.001\nsamples = 2\nvalue = 11.908"] ;
1046 -> 1054 ;
1055 [label="mse = 0.0\nsamples = 1\nvalue = 11.874"] ;
1054 -> 1055 ;
1056 [label="mse = -0.0\nsamples = 1\nvalue = 11.941"] ;
1054 -> 1056 ;
1057 [label="X[87] <= 0.5\nmse = 0.001\nsamples = 3\nvalue = 12.08"] ;
1045 -> 1057 ;
1058 [label="mse = 0.0\nsamples = 1\nvalue = 12.043"] ;
1057 -> 1058 ;
1059 [label="X[155] <= 0.5\nmse = 0.0\nsamples = 2\nvalue = 12.098"] ;
1057 -> 1059 ;
1060 [label="mse = 0.0\nsamples = 1\nvalue = 12.095"] ;
1059 -> 1060 ;
1061 [label="mse = -0.0\nsamples = 1\nvalue = 12.101"] ;
1059 -> 1061 ;
1062 [label="X[148] <= 0.5\nmse = 0.003\nsamples = 13\nvalue = 12.093"] ;
1044 -> 1062 ;
1063 [label="X[77] <= 0.5\nmse = 0.001\nsamples = 10\nvalue = 12.117"] ;
1062 -> 1063 ;
1064 [label="X[0] <= 319.0\nmse = 0.001\nsamples = 8\nvalue = 12.1"] ;
1063 -> 1064 ;
1065 [label="X[14] <= 0.5\nmse = 0.0\nsamples = 3\nvalue = 12.124"] ;
1064 -> 1065 ;
1066 [label="X[0] <= 247.0\nmse = 0.0\nsamples = 2\nvalue = 12.131"] ;
1065 -> 1066 ;
1067 [label="mse = 0.0\nsamples = 1\nvalue = 12.134"] ;
1066 -> 1067 ;
1068 [label="mse = 0.0\nsamples = 1\nvalue = 12.128"] ;
1066 -> 1068 ;
1069 [label="mse = 0.0\nsamples = 1\nvalue = 12.109"] ;
1065 -> 1069 ;
1070 [label="X[177] <= 0.5\nmse = 0.0\nsamples = 5\nvalue = 12.086"] ;
1064 -> 1070 ;
1071 [label="X[19] <= 0.5\nmse = 0.0\nsamples = 4\nvalue = 12.092"] ;
1070 -> 1071 ;
1072 [label="X[3] <= 1341.5\nmse = 0.0\nsamples = 2\nvalue = 12.101"] ;
1071 -> 1072 ;
1073 [label="mse = 0.0\nsamples = 1\nvalue = 12.096"] ;
1072 -> 1073 ;
1074 [label="mse = 0.0\nsamples = 1\nvalue = 12.106"] ;
1072 -> 1074 ;
1075 [label="X[10] <= 2000.5\nmse = 0.0\nsamples = 2\nvalue = 12.084"] ;
1071 -> 1075 ;
1076 [label="mse = 0.0\nsamples = 1\nvalue = 12.087"] ;
1075 -> 1076 ;
1077 [label="mse = 0.0\nsamples = 1\nvalue = 12.081"] ;
1075 -> 1077 ;
1078 [label="mse = 0.0\nsamples = 1\nvalue = 12.061"] ;
1070 -> 1078 ;
1079 [label="X[185] <= 0.5\nmse = 0.0\nsamples = 2\nvalue = 12.183"] ;
1063 -> 1079 ;
1080 [label="mse = 0.0\nsamples = 1\nvalue = 12.179"] ;
1079 -> 1080 ;
1081 [label="mse = -0.0\nsamples = 1\nvalue = 12.186"] ;
1079 -> 1081 ;
1082 [label="X[19] <= 0.5\nmse = 0.0\nsamples = 3\nvalue = 12.014"] ;
1062 -> 1082 ;
1083 [label="mse = 0.0\nsamples = 1\nvalue = 12.031"] ;
1082 -> 1083 ;
1084 [label="X[10] <= 1980.5\nmse = 0.0\nsamples = 2\nvalue = 12.006"] ;
1082 -> 1084 ;
1085 [label="mse = 0.0\nsamples = 1\nvalue = 12.014"] ;
1084 -> 1085 ;
1086 [label="mse = 0.0\nsamples = 1\nvalue = 11.998"] ;
1084 -> 1086 ;
1087 [label="X[31] <= 1.5\nmse = 0.051\nsamples = 348\nvalue = 11.992"] ;
1 -> 1087 ;
1088 [label="X[30] <= 1.5\nmse = 0.054\nsamples = 192\nvalue = 11.9"] ;
1087 -> 1088 ;
1089 [label="X[10] <= 1966.0\nmse = 0.038\nsamples = 99\nvalue = 11.799"] ;
1088 -> 1089 ;
1090 [label="X[3] <= 667.0\nmse = 0.033\nsamples = 43\nvalue = 11.72"] ;
1089 -> 1090 ;
1091 [label="X[61] <= 0.5\nmse = 0.007\nsamples = 5\nvalue = 11.418"] ;
1090 -> 1091 ;
1092 [label="mse = 0.0\nsamples = 1\nvalue = 11.277"] ;
1091 -> 1092 ;
1093 [label="X[27] <= 0.5\nmse = 0.002\nsamples = 4\nvalue = 11.454"] ;
1091 -> 1093 ;
1094 [label="X[31] <= 0.5\nmse = 0.0\nsamples = 2\nvalue = 11.503"] ;
1093 -> 1094 ;
1095 [label="mse = 0.0\nsamples = 1\nvalue = 11.513"] ;
1094 -> 1095 ;
1096 [label="mse = 0.0\nsamples = 1\nvalue = 11.493"] ;
1094 -> 1096 ;
1097 [label="X[12] <= 1.5\nmse = 0.0\nsamples = 2\nvalue = 11.405"] ;
1093 -> 1097 ;
1098 [label="mse = 0.0\nsamples = 1\nvalue = 11.402"] ;
1097 -> 1098 ;
1099 [label="mse = 0.0\nsamples = 1\nvalue = 11.408"] ;
1097 -> 1099 ;
1100 [label="X[2] <= 6060.0\nmse = 0.023\nsamples = 38\nvalue = 11.759"] ;
1090 -> 1100 ;
1101 [label="X[10] <= 1952.0\nmse = 0.003\nsamples = 4\nvalue = 11.527"] ;
1100 -> 1101 ;
1102 [label="X[152] <= 0.5\nmse = 0.0\nsamples = 3\nvalue = 11.556"] ;
1101 -> 1102 ;
1103 [label="mse = 0.0\nsamples = 1\nvalue = 11.584"] ;
1102 -> 1103 ;
1104 [label="X[159] <= 0.5\nmse = 0.0\nsamples = 2\nvalue = 11.542"] ;
1102 -> 1104 ;
1105 [label="mse = 0.0\nsamples = 1\nvalue = 11.533"] ;
1104 -> 1105 ;
1106 [label="mse = 0.0\nsamples = 1\nvalue = 11.552"] ;
1104 -> 1106 ;
1107 [label="mse = -0.0\nsamples = 1\nvalue = 11.44"] ;
1101 -> 1107 ;
1108 [label="X[9] <= 1905.0\nmse = 0.019\nsamples = 34\nvalue = 11.787"] ;
1100 -> 1108 ;
1109 [label="X[29] <= 6.0\nmse = 0.017\nsamples = 4\nvalue = 11.584"] ;
1108 -> 1109 ;
1110 [label="mse = 0.0\nsamples = 1\nvalue = 11.374"] ;
1109 -> 1110 ;
1111 [label="X[9] <= 1891.5\nmse = 0.004\nsamples = 3\nvalue = 11.654"] ;
1109 -> 1111 ;
1112 [label="X[5] <= 1038.0\nmse = 0.0\nsamples = 2\nvalue = 11.695"] ;
1111 -> 1112 ;
1113 [label="mse = 0.0\nsamples = 1\nvalue = 11.674"] ;
1112 -> 1113 ;
1114 [label="mse = 0.0\nsamples = 1\nvalue = 11.716"] ;
1112 -> 1114 ;
1115 [label="mse = 0.0\nsamples = 1\nvalue = 11.571"] ;
1111 -> 1115 ;
1116 [label="X[183] <= 0.5\nmse = 0.013\nsamples = 30\nvalue = 11.814"] ;
1108 -> 1116 ;
1117 [label="X[135] <= 0.5\nmse = 0.007\nsamples = 26\nvalue = 11.787"] ;
1116 -> 1117 ;
1118 [label="X[1] <= 72.0\nmse = 0.006\nsamples = 24\nvalue = 11.799"] ;
1117 -> 1118 ;
1119 [label="X[22] <= 5.5\nmse = 0.004\nsamples = 14\nvalue = 11.755"] ;
1118 -> 1119 ;
1120 [label="X[1] <= 63.0\nmse = 0.001\nsamples = 8\nvalue = 11.709"] ;
1119 -> 1120 ;
1121 [label="X[50] <= 0.5\nmse = 0.001\nsamples = 5\nvalue = 11.685"] ;
1120 -> 1121 ;
1122 [label="X[29] <= 3.5\nmse = 0.0\nsamples = 4\nvalue = 11.673"] ;
1121 -> 1122 ;
1123 [label="mse = 0.0\nsamples = 1\nvalue = 11.653"] ;
1122 -> 1123 ;
1124 [label="X[2] <= 10811.0\nmse = 0.0\nsamples = 3\nvalue = 11.68"] ;
1122 -> 1124 ;
1125 [label="X[4] <= 1341.0\nmse = 0.0\nsamples = 2\nvalue = 11.685"] ;
1124 -> 1125 ;
1126 [label="mse = 0.0\nsamples = 1\nvalue = 11.683"] ;
1125 -> 1126 ;
1127 [label="mse = 0.0\nsamples = 1\nvalue = 11.687"] ;
1125 -> 1127 ;
1128 [label="mse = -0.0\nsamples = 1\nvalue = 11.67"] ;
1124 -> 1128 ;
1129 [label="mse = -0.0\nsamples = 1\nvalue = 11.732"] ;
1121 -> 1129 ;
1130 [label="X[0] <= 355.5\nmse = 0.0\nsamples = 3\nvalue = 11.749"] ;
1120 -> 1130 ;
1131 [label="mse = 0.0\nsamples = 1\nvalue = 11.736"] ;
1130 -> 1131 ;
1132 [label="X[185] <= 0.5\nmse = 0.0\nsamples = 2\nvalue = 11.756"] ;
1130 -> 1132 ;
1133 [label="mse = 0.0\nsamples = 1\nvalue = 11.76"] ;
1132 -> 1133 ;
1134 [label="mse = 0.0\nsamples = 1\nvalue = 11.752"] ;
1132 -> 1134 ;
1135 [label="X[131] <= 0.5\nmse = 0.001\nsamples = 6\nvalue = 11.815"] ;
1119 -> 1135 ;
1136 [label="X[35] <= 0.5\nmse = 0.0\nsamples = 3\nvalue = 11.846"] ;
1135 -> 1136 ;
1137 [label="X[1] <= 25.5\nmse = 0.0\nsamples = 2\nvalue = 11.855"] ;
1136 -> 1137 ;
1138 [label="mse = 0.0\nsamples = 1\nvalue = 11.849"] ;
1137 -> 1138 ;
1139 [label="mse = -0.0\nsamples = 1\nvalue = 11.86"] ;
1137 -> 1139 ;
1140 [label="mse = -0.0\nsamples = 1\nvalue = 11.828"] ;
1136 -> 1140 ;
1141 [label="X[13] <= 7.5\nmse = 0.001\nsamples = 3\nvalue = 11.785"] ;
1135 -> 1141 ;
1142 [label="X[0] <= 703.0\nmse = 0.0\nsamples = 2\nvalue = 11.769"] ;
1141 -> 1142 ;
1143 [label="mse = 0.0\nsamples = 1\nvalue = 11.764"] ;
1142 -> 1143 ;
1144 [label="mse = 0.0\nsamples = 1\nvalue = 11.775"] ;
1142 -> 1144 ;
1145 [label="mse = -0.0\nsamples = 1\nvalue = 11.817"] ;
1141 -> 1145 ;
1146 [label="X[7] <= 2205.0\nmse = 0.002\nsamples = 10\nvalue = 11.861"] ;
1118 -> 1146 ;
1147 [label="X[78] <= 0.5\nmse = 0.001\nsamples = 9\nvalue = 11.851"] ;
1146 -> 1147 ;
1148 [label="X[1] <= 85.5\nmse = 0.0\nsamples = 8\nvalue = 11.859"] ;
1147 -> 1148 ;
1149 [label="X[4] <= 1364.5\nmse = 0.0\nsamples = 5\nvalue = 11.874"] ;
1148 -> 1149 ;
1150 [label="X[18] <= 0.5\nmse = 0.0\nsamples = 3\nvalue = 11.882"] ;
1149 -> 1150 ;
1151 [label="mse = 0.0\nsamples = 2\nvalue = 11.884"] ;
1150 -> 1151 ;
1152 [label="mse = -0.0\nsamples = 1\nvalue = 11.878"] ;
1150 -> 1152 ;
1153 [label="X[16] <= 1.0\nmse = 0.0\nsamples = 2\nvalue = 11.862"] ;
1149 -> 1153 ;
1154 [label="mse = 0.0\nsamples = 1\nvalue = 11.857"] ;
1153 -> 1154 ;
1155 [label="mse = -0.0\nsamples = 1\nvalue = 11.868"] ;
1153 -> 1155 ;
1156 [label="X[4] <= 910.0\nmse = 0.0\nsamples = 3\nvalue = 11.834"] ;
1148 -> 1156 ;
1157 [label="mse = 0.0\nsamples = 1\nvalue = 11.841"] ;
1156 -> 1157 ;
1158 [label="X[0] <= 1250.0\nmse = 0.0\nsamples = 2\nvalue = 11.831"] ;
1156 -> 1158 ;
1159 [label="mse = 0.0\nsamples = 1\nvalue = 11.834"] ;
1158 -> 1159 ;
1160 [label="mse = 0.0\nsamples = 1\nvalue = 11.828"] ;
1158 -> 1160 ;
1161 [label="mse = -0.0\nsamples = 1\nvalue = 11.787"] ;
1147 -> 1161 ;
1162 [label="mse = 0.0\nsamples = 1\nvalue = 11.947"] ;
1146 -> 1162 ;
1163 [label="X[4] <= 1608.0\nmse = 0.001\nsamples = 2\nvalue = 11.643"] ;
1117 -> 1163 ;
1164 [label="mse = 0.0\nsamples = 1\nvalue = 11.678"] ;
1163 -> 1164 ;
1165 [label="mse = -0.0\nsamples = 1\nvalue = 11.608"] ;
1163 -> 1165 ;
1166 [label="X[9] <= 1951.0\nmse = 0.013\nsamples = 4\nvalue = 11.987"] ;
1116 -> 1166 ;
1167 [label="X[136] <= 0.5\nmse = 0.002\nsamples = 2\nvalue = 11.887"] ;
1166 -> 1167 ;
1168 [label="mse = 0.0\nsamples = 1\nvalue = 11.842"] ;
1167 -> 1168 ;
1169 [label="mse = 0.0\nsamples = 1\nvalue = 11.932"] ;
1167 -> 1169 ;
1170 [label="X[136] <= 0.5\nmse = 0.005\nsamples = 2\nvalue = 12.087"] ;
1166 -> 1170 ;
1171 [label="mse = 0.0\nsamples = 1\nvalue = 12.02"] ;
1170 -> 1171 ;
1172 [label="mse = 0.0\nsamples = 1\nvalue = 12.155"] ;
1170 -> 1172 ;
1173 [label="X[21] <= 3.5\nmse = 0.033\nsamples = 56\nvalue = 11.86"] ;
1089 -> 1173 ;
1174 [label="X[9] <= 1907.5\nmse = 0.003\nsamples = 2\nvalue = 11.406"] ;
1173 -> 1174 ;
1175 [label="mse = 0.0\nsamples = 1\nvalue = 11.462"] ;
1174 -> 1175 ;
1176 [label="mse = -0.0\nsamples = 1\nvalue = 11.35"] ;
1174 -> 1176 ;
1177 [label="X[7] <= 1916.0\nmse = 0.026\nsamples = 54\nvalue = 11.877"] ;
1173 -> 1177 ;
1178 [label="X[26] <= 2.5\nmse = 0.016\nsamples = 46\nvalue = 11.844"] ;
1177 -> 1178 ;
1179 [label="X[5] <= 636.5\nmse = 0.004\nsamples = 9\nvalue = 11.731"] ;
1178 -> 1179 ;
1180 [label="X[10] <= 1977.5\nmse = 0.001\nsamples = 5\nvalue = 11.682"] ;
1179 -> 1180 ;
1181 [label="mse = 0.0\nsamples = 1\nvalue = 11.744"] ;
1180 -> 1181 ;
1182 [label="X[0] <= 1102.0\nmse = 0.001\nsamples = 4\nvalue = 11.667"] ;
1180 -> 1182 ;
1183 [label="X[7] <= 1585.0\nmse = 0.0\nsamples = 3\nvalue = 11.681"] ;
1182 -> 1183 ;
1184 [label="X[148] <= 0.5\nmse = 0.0\nsamples = 2\nvalue = 11.686"] ;
1183 -> 1184 ;
1185 [label="mse = 0.0\nsamples = 1\nvalue = 11.687"] ;
1184 -> 1185 ;
1186 [label="mse = -0.0\nsamples = 1\nvalue = 11.686"] ;
1184 -> 1186 ;
1187 [label="mse = -0.0\nsamples = 1\nvalue = 11.67"] ;
1183 -> 1187 ;
1188 [label="mse = 0.0\nsamples = 1\nvalue = 11.626"] ;
1182 -> 1188 ;
1189 [label="X[28] <= 4.0\nmse = 0.002\nsamples = 4\nvalue = 11.791"] ;
1179 -> 1189 ;
1190 [label="X[16] <= 1.5\nmse = 0.0\nsamples = 3\nvalue = 11.812"] ;
1189 -> 1190 ;
1191 [label="X[101] <= 0.5\nmse = 0.0\nsamples = 2\nvalue = 11.823"] ;
1190 -> 1191 ;
1192 [label="mse = 0.0\nsamples = 1\nvalue = 11.827"] ;
1191 -> 1192 ;
1193 [label="mse = 0.0\nsamples = 1\nvalue = 11.82"] ;
1191 -> 1193 ;
1194 [label="mse = 0.0\nsamples = 1\nvalue = 11.791"] ;
1190 -> 1194 ;
1195 [label="mse = 0.0\nsamples = 1\nvalue = 11.728"] ;
1189 -> 1195 ;
1196 [label="X[10] <= 2004.5\nmse = 0.015\nsamples = 37\nvalue = 11.871"] ;
1178 -> 1196 ;
1197 [label="X[21] <= 5.5\nmse = 0.011\nsamples = 32\nvalue = 11.897"] ;
1196 -> 1197 ;
1198 [label="X[17] <= 3.0\nmse = 0.009\nsamples = 21\nvalue = 11.859"] ;
1197 -> 1198 ;
1199 [label="X[53] <= 0.5\nmse = 0.005\nsamples = 19\nvalue = 11.841"] ;
1198 -> 1199 ;
1200 [label="X[14] <= 0.5\nmse = 0.003\nsamples = 16\nvalue = 11.823"] ;
1199 -> 1200 ;
1201 [label="X[78] <= 0.5\nmse = 0.002\nsamples = 13\nvalue = 11.803"] ;
1200 -> 1201 ;
1202 [label="X[29] <= 5.0\nmse = 0.001\nsamples = 10\nvalue = 11.816"] ;
1201 -> 1202 ;
1203 [label="mse = 0.0\nsamples = 1\nvalue = 11.728"] ;
1202 -> 1203 ;
1204 [label="X[1] <= 93.5\nmse = 0.0\nsamples = 9\nvalue = 11.826"] ;
1202 -> 1204 ;
1205 [label="X[28] <= 3.5\nmse = 0.0\nsamples = 8\nvalue = 11.82"] ;
1204 -> 1205 ;
1206 [label="X[10] <= 1975.0\nmse = 0.0\nsamples = 7\nvalue = 11.823"] ;
1205 -> 1206 ;
1207 [label="X[7] <= 1712.0\nmse = 0.0\nsamples = 4\nvalue = 11.818"] ;
1206 -> 1207 ;
1208 [label="mse = 0.0\nsamples = 2\nvalue = 11.813"] ;
1207 -> 1208 ;
1209 [label="X[7] <= 1780.0\nmse = 0.0\nsamples = 2\nvalue = 11.822"] ;
1207 -> 1209 ;
1210 [label="mse = 0.0\nsamples = 1\nvalue = 11.824"] ;
1209 -> 1210 ;
1211 [label="mse = 0.0\nsamples = 1\nvalue = 11.82"] ;
1209 -> 1211 ;
1212 [label="X[151] <= 0.5\nmse = 0.0\nsamples = 3\nvalue = 11.831"] ;
1206 -> 1212 ;
1213 [label="X[5] <= 671.0\nmse = 0.0\nsamples = 2\nvalue = 11.833"] ;
1212 -> 1213 ;
1214 [label="mse = 0.0\nsamples = 1\nvalue = 11.831"] ;
1213 -> 1214 ;
1215 [label="mse = 0.0\nsamples = 1\nvalue = 11.835"] ;
1213 -> 1215 ;
1216 [label="mse = 0.0\nsamples = 1\nvalue = 11.827"] ;
1212 -> 1216 ;
1217 [label="mse = -0.0\nsamples = 1\nvalue = 11.798"] ;
1205 -> 1217 ;
1218 [label="mse = -0.0\nsamples = 1\nvalue = 11.871"] ;
1204 -> 1218 ;
1219 [label="X[15] <= 1920.5\nmse = 0.001\nsamples = 3\nvalue = 11.761"] ;
1201 -> 1219 ;
1220 [label="mse = 0.0\nsamples = 1\nvalue = 11.813"] ;
1219 -> 1220 ;
1221 [label="X[61] <= 0.5\nmse = 0.0\nsamples = 2\nvalue = 11.736"] ;
1219 -> 1221 ;
1222 [label="mse = 0.0\nsamples = 1\nvalue = 11.735"] ;
1221 -> 1222 ;
1223 [label="mse = 0.0\nsamples = 1\nvalue = 11.736"] ;
1221 -> 1223 ;
1224 [label="X[1] <= 67.5\nmse = 0.002\nsamples = 3\nvalue = 11.907"] ;
1200 -> 1224 ;
1225 [label="mse = 0.0\nsamples = 1\nvalue = 11.967"] ;
1224 -> 1225 ;
1226 [label="X[17] <= 1.5\nmse = 0.001\nsamples = 2\nvalue = 11.877"] ;
1224 -> 1226 ;
1227 [label="mse = 0.0\nsamples = 1\nvalue = 11.905"] ;
1226 -> 1227 ;
1228 [label="mse = -0.0\nsamples = 1\nvalue = 11.849"] ;
1226 -> 1228 ;
1229 [label="X[49] <= 0.5\nmse = 0.002\nsamples = 3\nvalue = 11.935"] ;
1199 -> 1229 ;
1230 [label="X[3] <= 1176.0\nmse = 0.0\nsamples = 2\nvalue = 11.96"] ;
1229 -> 1230 ;
1231 [label="mse = 0.0\nsamples = 1\nvalue = 11.979"] ;
1230 -> 1231 ;
1232 [label="mse = -0.0\nsamples = 1\nvalue = 11.941"] ;
1230 -> 1232 ;
1233 [label="mse = 0.0\nsamples = 1\nvalue = 11.884"] ;
1229 -> 1233 ;
1234 [label="X[7] <= 1584.0\nmse = 0.013\nsamples = 2\nvalue = 12.031"] ;
1198 -> 1234 ;
1235 [label="mse = 0.0\nsamples = 1\nvalue = 11.918"] ;
1234 -> 1235 ;
1236 [label="mse = 0.0\nsamples = 1\nvalue = 12.144"] ;
1234 -> 1236 ;
1237 [label="X[15] <= 1916.0\nmse = 0.008\nsamples = 11\nvalue = 11.97"] ;
1197 -> 1237 ;
1238 [label="X[7] <= 1646.5\nmse = 0.0\nsamples = 2\nvalue = 11.828"] ;
1237 -> 1238 ;
1239 [label="mse = 0.0\nsamples = 1\nvalue = 11.813"] ;
1238 -> 1239 ;
1240 [label="mse = 0.0\nsamples = 1\nvalue = 11.842"] ;
1238 -> 1240 ;
1241 [label="X[5] <= 728.0\nmse = 0.004\nsamples = 9\nvalue = 12.002"] ;
1237 -> 1241 ;
1242 [label="X[1] <= 57.5\nmse = 0.0\nsamples = 4\nvalue = 11.936"] ;
1241 -> 1242 ;
1243 [label="X[46] <= 0.5\nmse = 0.0\nsamples = 2\nvalue = 11.928"] ;
1242 -> 1243 ;
1244 [label="mse = 0.0\nsamples = 1\nvalue = 11.932"] ;
1243 -> 1244 ;
1245 [label="mse = 0.0\nsamples = 1\nvalue = 11.924"] ;
1243 -> 1245 ;
1246 [label="X[146] <= 0.5\nmse = 0.0\nsamples = 2\nvalue = 11.943"] ;
1242 -> 1246 ;
1247 [label="mse = 0.0\nsamples = 1\nvalue = 11.942"] ;
1246 -> 1247 ;
1248 [label="mse = 0.0\nsamples = 1\nvalue = 11.945"] ;
1246 -> 1248 ;
1249 [label="X[40] <= 0.5\nmse = 0.001\nsamples = 5\nvalue = 12.055"] ;
1241 -> 1249 ;
1250 [label="X[53] <= 0.5\nmse = 0.0\nsamples = 4\nvalue = 12.072"] ;
1249 -> 1250 ;
1251 [label="X[159] <= 0.5\nmse = 0.0\nsamples = 3\nvalue = 12.077"] ;
1250 -> 1251 ;
1252 [label="X[1] <= 31.5\nmse = 0.0\nsamples = 2\nvalue = 12.085"] ;
1251 -> 1252 ;
1253 [label="mse = 0.0\nsamples = 1\nvalue = 12.087"] ;
1252 -> 1253 ;
1254 [label="mse = -0.0\nsamples = 1\nvalue = 12.084"] ;
1252 -> 1254 ;
1255 [label="mse = 0.0\nsamples = 1\nvalue = 12.061"] ;
1251 -> 1255 ;
1256 [label="mse = 0.0\nsamples = 1\nvalue = 12.058"] ;
1250 -> 1256 ;
1257 [label="mse = -0.0\nsamples = 1\nvalue = 11.983"] ;
1249 -> 1257 ;
1258 [label="X[151] <= 0.5\nmse = 0.008\nsamples = 5\nvalue = 11.708"] ;
1196 -> 1258 ;
1259 [label="X[28] <= 2.5\nmse = 0.0\nsamples = 3\nvalue = 11.638"] ;
1258 -> 1259 ;
1260 [label="mse = 0.0\nsamples = 1\nvalue = 11.653"] ;
1259 -> 1260 ;
1261 [label="X[8] <= 288.0\nmse = 0.0\nsamples = 2\nvalue = 11.631"] ;
1259 -> 1261 ;
1262 [label="mse = 0.0\nsamples = 1\nvalue = 11.635"] ;
1261 -> 1262 ;
1263 [label="mse = 0.0\nsamples = 1\nvalue = 11.626"] ;
1261 -> 1263 ;
1264 [label="X[8] <= 325.5\nmse = 0.001\nsamples = 2\nvalue = 11.812"] ;
1258 -> 1264 ;
1265 [label="mse = 0.0\nsamples = 1\nvalue = 11.849"] ;
1264 -> 1265 ;
1266 [label="mse = 0.0\nsamples = 1\nvalue = 11.775"] ;
1264 -> 1266 ;
1267 [label="X[0] <= 651.5\nmse = 0.039\nsamples = 8\nvalue = 12.065"] ;
1177 -> 1267 ;
1268 [label="X[135] <= 0.5\nmse = 0.002\nsamples = 3\nvalue = 12.269"] ;
1267 -> 1268 ;
1269 [label="X[159] <= 0.5\nmse = 0.001\nsamples = 2\nvalue = 12.3"] ;
1268 -> 1269 ;
1270 [label="mse = 0.0\nsamples = 1\nvalue = 12.276"] ;
1269 -> 1270 ;
1271 [label="mse = 0.0\nsamples = 1\nvalue = 12.324"] ;
1269 -> 1271 ;
1272 [label="mse = 0.0\nsamples = 1\nvalue = 12.206"] ;
1268 -> 1272 ;
1273 [label="X[0] <= 1191.0\nmse = 0.022\nsamples = 5\nvalue = 11.944"] ;
1267 -> 1273 ;
1274 [label="X[156] <= 0.5\nmse = 0.006\nsamples = 4\nvalue = 11.878"] ;
1273 -> 1274 ;
1275 [label="mse = 0.0\nsamples = 1\nvalue = 11.768"] ;
1274 -> 1275 ;
1276 [label="X[86] <= 0.5\nmse = 0.002\nsamples = 3\nvalue = 11.915"] ;
1274 -> 1276 ;
1277 [label="mse = 0.0\nsamples = 1\nvalue = 11.983"] ;
1276 -> 1277 ;
1278 [label="X[3] <= 636.0\nmse = 0.0\nsamples = 2\nvalue = 11.88"] ;
1276 -> 1278 ;
1279 [label="mse = 0.0\nsamples = 1\nvalue = 11.87"] ;
1278 -> 1279 ;
1280 [label="mse = -0.0\nsamples = 1\nvalue = 11.891"] ;
1278 -> 1280 ;
1281 [label="mse = 0.0\nsamples = 1\nvalue = 12.206"] ;
1273 -> 1281 ;
1282 [label="X[7] <= 2059.0\nmse = 0.05\nsamples = 93\nvalue = 12.009"] ;
1088 -> 1282 ;
1283 [label="X[16] <= 1.5\nmse = 0.033\nsamples = 72\nvalue = 11.947"] ;
1282 -> 1283 ;
1284 [label="X[22] <= 4.5\nmse = 0.031\nsamples = 26\nvalue = 11.829"] ;
1283 -> 1284 ;
1285 [label="X[17] <= 1.5\nmse = 0.017\nsamples = 4\nvalue = 11.601"] ;
1284 -> 1285 ;
1286 [label="X[1] <= 56.0\nmse = 0.005\nsamples = 2\nvalue = 11.709"] ;
1285 -> 1286 ;
1287 [label="mse = 0.0\nsamples = 1\nvalue = 11.635"] ;
1286 -> 1287 ;
1288 [label="mse = -0.0\nsamples = 1\nvalue = 11.783"] ;
1286 -> 1288 ;
1289 [label="X[59] <= 0.5\nmse = 0.005\nsamples = 2\nvalue = 11.492"] ;
1285 -> 1289 ;
1290 [label="mse = 0.0\nsamples = 1\nvalue = 11.424"] ;
1289 -> 1290 ;
1291 [label="mse = 0.0\nsamples = 1\nvalue = 11.561"] ;
1289 -> 1291 ;
1292 [label="X[67] <= 0.5\nmse = 0.022\nsamples = 22\nvalue = 11.871"] ;
1284 -> 1292 ;
1293 [label="X[4] <= 928.0\nmse = 0.017\nsamples = 19\nvalue = 11.838"] ;
1292 -> 1293 ;
1294 [label="X[22] <= 5.5\nmse = 0.022\nsamples = 5\nvalue = 11.705"] ;
1293 -> 1294 ;
1295 [label="X[42] <= 0.5\nmse = 0.003\nsamples = 2\nvalue = 11.539"] ;
1294 -> 1295 ;
1296 [label="mse = 0.0\nsamples = 1\nvalue = 11.488"] ;
1295 -> 1296 ;
1297 [label="mse = -0.0\nsamples = 1\nvalue = 11.59"] ;
1295 -> 1297 ;
1298 [label="X[2] <= 7890.0\nmse = 0.003\nsamples = 3\nvalue = 11.816"] ;
1294 -> 1298 ;
1299 [label="X[146] <= 0.5\nmse = 0.0\nsamples = 2\nvalue = 11.777"] ;
1298 -> 1299 ;
1300 [label="mse = 0.0\nsamples = 1\nvalue = 11.76"] ;
1299 -> 1300 ;
1301 [label="mse = -0.0\nsamples = 1\nvalue = 11.794"] ;
1299 -> 1301 ;
1302 [label="mse = -0.0\nsamples = 1\nvalue = 11.895"] ;
1298 -> 1302 ;
1303 [label="X[25] <= 12.5\nmse = 0.007\nsamples = 14\nvalue = 11.885"] ;
1293 -> 1303 ;
